{"learner":{"attributes":{"best_iteration":"89","best_score":"0.10581787683099408"},"feature_names":[],"feature_types":[],"gradient_booster":{"model":{"gbtree_model_param":{"num_parallel_tree":"1","num_trees":"140"},"iteration_indptr":[0,1,2,3,4,5,6,7,8,9,10,11,12,13,14,15,16,17,18,19,20,21,22,23,24,25,26,27,28,29,30,31,32,33,34,35,36,37,38,39,40,41,42,43,44,45,46,47,48,49,50,51,52,53,54,55,56,57,58,59,60,61,62,63,64,65,66,67,68,69,70,71,72,73,74,75,76,77,78,79,80,81,82,83,84,85,86,87,88,89,90,91,92,93,94,95,96,97,98,99,100,101,102,103,104,105,106,107,108,109,110,111,112,113,114,115,116,117,118,119,120,121,122,123,124,125,126,127,128,129,130,131,132,133,134,135,136,137,138,139,140],"tree_info":[0,0,0,0,0,0,0,0,0,0,0,0,0,0,0,0,0,0,0,0,0,0,0,0,0,0,0,0,0,0,0,0,0,0,0,0,0,0,0,0,0,0,0,0,0,0,0,0,0,0,0,0,0,0,0,0,0,0,0,0,0,0,0,0,0,0,0,0,0,0,0,0,0,0,0,0,0,0,0,0,0,0,0,0,0,0,0,0,0,0,0,0,0,0,0,0,0,0,0,0,0,0,0,0,0,0,0,0,0,0,0,0,0,0,0,0,0,0,0,0,0,0,0,0,0,0,0,0,0,0,0,0,0,0,0,0,0,0,0,0],"trees":[{"base_weights":[1.7213199E-3,-5.662923E-1,1.8717756E0,-7.330521E-2,-6.815358E-1,1.8815415E0,-9.9749684E-2,-1.0896288E0,1.5448937E-1,-6.063511E-1,-1.4044085E0,1.9487996E0,1.5128138E0,-1.513136E0,8.775167E-1,-7.125823E-2,9.2898375E-1,-2.6259506E-1,-7.9762095E-1,-1.5898336E0,9.7653216E-1,1.95326E0,-9.934103E-2,1.9318107E0,7.92269E-1,4.110361E-1,-1.7967668E0,1.6435138E0,-1.2278764E0,-6.055455E-1,4.937322E-1,1.4978096E0,-4.215118E-2,-7.828567E-1,1.853263E-1,2.9105896E-1,-8.6663264E-1,-3.0915858E-2,-1.7115875E0,1.7835423E0,-9.983733E-2,-9.809524E-2,1.954786E0,-9.751553E-2,1.9418489E0,3.8069043E-1,1.967737E0,-9.980658E-2,6.507292E-2,-9.7167104E-2,-2.473243E-2,-9.939759E-2,9.5928125E-2,-9.9854335E-2,9.412356E-2,9.189023E-2,-4.408184E-2,3.5128955E-2,-7.673764E-2,7.870566E-2,-9.959391E-2,-5.1969904E-2,7.639988E-2,8.0724664E-2,-4.4551477E-2,-3.5837878E-4,6.983456E-2,-9.9956974E-2,3.611668E-2,-3.03113E-2,-6.486146E-2,-9.9888586E-2,4.8023645E-2,-8.972027E-2,-2.5698695E-2,-9.87055E-2,9.577137E-2,9.780565E-2,-9.781421E-2,-9.6850395E-2,9.748745E-2,-3.2870267E-3,9.341177E-2,-9.298246E-2,9.95241E-2],"categories":[],"categories_nodes":[],"categories_segments":[],"categories_sizes":[],"default_left":[0,0,0,0,0,0,0,0,0,0,0,0,0,0,0,0,0,0,0,0,0,0,0,0,0,0,0,0,0,0,0,0,0,0,0,0,0,0,0,0,0,0,0,0,0,0,0,0,0,0,0,0,0,0,0,0,0,0,0,0,0,0,0,0,0,0,0,0,0,0,0,0,0,0,0,0,0,0,0,0,0,0,0,0,0],"id":0,"left_children":[1,3,5,7,9,11,-1,13,15,17,19,21,23,25,27,29,31,33,35,37,39,41,-1,43,45,47,49,51,53,55,57,59,61,63,65,67,69,71,73,75,-1,-1,77,-1,79,81,83,-1,-1,-1,-1,-1,-1,-1,-1,-1,-1,-1,-1,-1,-1,-1,-1,-1,-1,-1,-1,-1,-1,-1,-1,-1,-1,-1,-1,-1,-1,-1,-1,-1,-1,-1,-1,-1,-1],"loss_changes":[7.22134E5,2.9625406E4,5.984875E3,2.287415E4,2.2969719E4,3.915125E3,0E0,1.5072549E4,1.4111883E4,2.5171188E4,1.7580164E4,2.3493125E3,7.357949E3,8.1249062E3,5.1714355E3,1.886618E4,1.0062892E4,3.1894238E4,1.8480484E4,7.011414E3,6.907958E3,8.0121875E2,0E0,6.0441797E2,4.336371E3,4.1033345E3,2.4752227E3,2.3517842E3,2.0509614E3,2.167064E4,1.2869822E4,3.0620273E3,1.0539078E4,1.642177E4,1.714936E4,1.4484615E4,2.5935953E4,5.22208E3,3.397539E3,1.1256333E3,0E0,0E0,6.9625E2,0E0,4.748828E2,4.410387E3,2.0607031E2,0E0,0E0,0E0,0E0,0E0,0E0,0E0,0E0,0E0,0E0,0E0,0E0,0E0,0E0,0E0,0E0,0E0,0E0,0E0,0E0,0E0,0E0,0E0,0E0,0E0,0E0,0E0,0E0,0E0,0E0,0E0,0E0,0E0,0E0,0E0,0E0,0E0,0E0],"parents":[2147483647,0,0,1,1,2,2,3,3,4,4,5,5,7,7,8,8,9,9,10,10,11,11,12,12,13,13,14,14,15,15,16,16,17,17,18,18,19,19,20,20,21,21,23,23,24,24,25,25,26,26,27,27,28,28,29,29,30,30,31,31,32,32,33,33,34,34,35,35,36,36,37,37,38,38,39,39,42,42,44,44,45,45,46,46],"right_children":[2,4,6,8,10,12,-1,14,16,18,20,22,24,26,28,30,32,34,36,38,40,42,-1,44,46,48,50,52,54,56,58,60,62,64,66,68,70,72,74,76,-1,-1,78,-1,80,82,84,-1,-1,-1,-1,-1,-1,-1,-1,-1,-1,-1,-1,-1,-1,-1,-1,-1,-1,-1,-1,-1,-1,-1,-1,-1,-1,-1,-1,-1,-1,-1,-1,-1,-1,-1,-1,-1,-1],"split_conditions":[8.22283E2,1.919531E1,2.5302788E1,4.981712E1,3.9215688E-2,1.279422E2,-9.9749684E-2,7.05107E2,2.2118397E1,5.008649E1,8.2375305E1,5.516761E0,7.877442E2,-4.680075E-1,1.3665356E-2,6.871556E2,5.112465E0,7.49581E2,9.305411E0,1.657652E1,6.6E1,7.4494E2,-9.934103E-2,5.7775013E1,5E0,6.6950865E0,6.933026E2,2.7413487E-2,2.322242E1,6.14E1,3.300299E-2,4.2396796E2,3.0573593E-2,2.994429E1,4.201E2,7.1566666E1,2.8698694E-2,8.035009E1,3.697576E0,3.068494E0,-9.983733E-2,-9.809524E-2,8.051131E1,-9.751553E-2,-1.4226673E-2,3.092655E1,4.2105265E-2,-9.980658E-2,6.507292E-2,-9.7167104E-2,-2.473243E-2,-9.939759E-2,9.5928125E-2,-9.9854335E-2,9.412356E-2,9.189023E-2,-4.408184E-2,3.5128955E-2,-7.673764E-2,7.870566E-2,-9.959391E-2,-5.1969904E-2,7.639988E-2,8.0724664E-2,-4.4551477E-2,-3.5837878E-4,6.983456E-2,-9.9956974E-2,3.611668E-2,-3.03113E-2,-6.486146E-2,-9.9888586E-2,4.8023645E-2,-8.972027E-2,-2.5698695E-2,-9.87055E-2,9.577137E-2,9.780565E-2,-9.781421E-2,-9.6850395E-2,9.748745E-2,-3.2870267E-3,9.341177E-2,-9.298246E-2,9.95241E-2],"split_indices":[1,72,76,53,94,29,0,81,92,69,84,91,93,95,83,81,58,93,92,56,38,33,0,55,7,90,81,78,56,38,78,66,94,87,70,70,78,84,75,91,0,0,85,0,30,72,3,0,0,0,0,0,0,0,0,0,0,0,0,0,0,0,0,0,0,0,0,0,0,0,0,0,0,0,0,0,0,0,0,0,0,0,0,0,0],"split_type":[0,0,0,0,0,0,0,0,0,0,0,0,0,0,0,0,0,0,0,0,0,0,0,0,0,0,0,0,0,0,0,0,0,0,0,0,0,0,0,0,0,0,0,0,0,0,0,0,0,0,0,0,0,0,0,0,0,0,0,0,0,0,0,0,0,0,0,0,0,0,0,0,0,0,0,0,0,0,0,0,0,0,0,0,0],"sum_hessian":[6.798351E5,5.2144975E5,1.5838538E5,9.880114E4,4.226486E5,1.5798688E5,3.985E2,1.8089523E4,8.0711625E4,3.828327E5,3.9815902E4,1.3361116E5,2.4375719E4,1.488513E4,3.2043928E3,6.2496277E4,1.8215344E4,1.368622E5,2.4597048E5,3.693943E4,2.876472E3,1.334604E5,1.5075E2,1.5411974E4,8.963745E3,1.9121964E3,1.2972934E4,2.349722E3,8.546709E2,3.2120873E4,3.0375404E4,1.1486676E4,6.7286685E3,6.3317746E4,7.354445E4,1.4662467E4,2.3130803E5,2.6761172E3,3.4263312E4,2.262722E3,6.1375E2,5.15E1,1.334089E5,3.925E1,1.5372724E4,6.640102E3,2.3236428E3,5.16E2,1.3961964E3,1.1659921E4,1.3130127E3,1.65E2,2.184722E3,6.855E2,1.6917091E2,3.2604973E3,2.8860375E4,2.7540562E4,2.8348418E3,1.1241426E4,2.4525E2,4.1152754E3,2.6133928E3,2.7330637E3,6.0584684E4,6.3461066E4,1.0083388E4,2.323E3,1.2339467E4,1.4414038E5,8.716765E4,8.965E2,1.7796173E3,3.2046709E4,2.2166045E3,7.625E1,2.186472E3,1.3336416E5,4.475E1,3.075E1,1.5341974E4,5.1080635E3,1.5320382E3,1.325E1,2.3103928E3],"tree_param":{"num_deleted":"0","num_feature":"98","num_nodes":"85","size_leaf_vector":"1"}},{"base_weights":[-1.2402432E-2,-5.453174E-1,1.778878E0,-6.949327E-1,-2.249728E-1,-1.1858358E0,1.7941116E0,-5.6744933E-1,-1.3664014E0,-9.567062E-1,1.7929005E-2,-9.990183E-2,1.6360098E0,1.8034439E0,-9.500772E-2,-6.9169647E-1,3.1086773E-1,9.1812676E-1,-1.5220404E0,1.1231855E0,-1.1792586E0,-1.4713811E0,1.952773E-1,-9.191049E-2,9.496297E-2,1.8666967E0,1.4041446E0,-1.502345E0,-5.4635113E-1,9.0401506E-1,-3.5098365E-1,-9.722502E-2,1.683001E0,1.4561452E0,-1.6002586E0,-9.818849E-2,1.6680338E0,-1.3841751E0,1.4632533E0,1.2859163E0,-1.7417755E0,2.9922706E-1,-9.880506E-2,1.8705376E0,-9.462413E-2,4.9867594E-1,1.8101724E0,-8.2748435E-2,9.249718E-2,-3.6279537E-2,-6.856734E-4,5.5849027E-2,-9.831873E-2,-9.732558E-2,-1.2618204E-3,-9.667139E-2,9.515913E-2,9.713587E-2,-9.640361E-2,-6.8467804E-3,-8.9103274E-2,9.046998E-2,-9.753405E-2,-9.511028E-2,-2.7532667E-2,9.752204E-2,-9.835371E-2,9.426194E-2,-9.764259E-2,8.2897566E-2,-9.517713E-2,2.0363024E-2,-4.559421E-2,9.3581244E-2,-9.7322784E-2,3.7040673E-2,-1.0024375E-1,-1.015054E-1,9.168762E-2],"categories":[],"categories_nodes":[],"categories_segments":[],"categories_sizes":[],"default_left":[0,0,0,0,0,0,0,0,0,0,0,0,0,0,0,0,0,0,0,0,0,0,0,0,0,0,0,0,0,0,0,0,0,0,0,0,0,0,0,0,0,0,0,0,0,0,0,0,0,0,0,0,0,0,0,0,0,0,0,0,0,0,0,0,0,0,0,0,0,0,0,0,0,0,0,0,0,0,0],"id":1,"left_children":[1,3,5,7,9,11,13,15,17,19,21,-1,23,25,-1,27,29,31,33,35,37,39,41,-1,-1,43,45,47,49,51,53,-1,55,57,59,-1,61,63,65,67,69,71,-1,73,-1,75,77,-1,-1,-1,-1,-1,-1,-1,-1,-1,-1,-1,-1,-1,-1,-1,-1,-1,-1,-1,-1,-1,-1,-1,-1,-1,-1,-1,-1,-1,-1,-1,-1],"loss_changes":[6.43607E5,2.4904656E4,6.9839375E3,3.0318969E4,2.9403105E4,1.8158868E3,5.305875E3,3.2485867E4,2.0096422E4,1.908539E4,3.2804953E4,0E0,1.6565582E2,3.8721562E3,0E0,3.0726648E4,1.4483339E4,7.8973657E3,1.2328086E4,6.706796E3,2.0169398E4,9.855713E3,2.5051559E4,0E0,0E0,1.9156875E3,7.713414E3,2.0289078E4,2.1112492E4,1.1895698E4,9.06267E3,0E0,2.2696113E3,2.2343604E3,1.3716422E4,0E0,1.7368232E3,1.4923406E4,4.4839604E3,2.2958462E3,6.622711E3,1.3858436E4,0E0,5.52625E2,0E0,3.9403198E3,1.3155312E3,0E0,0E0,0E0,0E0,0E0,0E0,0E0,0E0,0E0,0E0,0E0,0E0,0E0,0E0,0E0,0E0,0E0,0E0,0E0,0E0,0E0,0E0,0E0,0E0,0E0,0E0,0E0,0E0,0E0,0E0,0E0,0E0],"parents":[2147483647,0,0,1,1,2,2,3,3,4,4,5,5,6,6,7,7,8,8,9,9,10,10,12,12,13,13,15,15,16,16,17,17,18,18,19,19,20,20,21,21,22,22,25,25,26,26,27,27,28,28,29,29,30,30,32,32,33,33,34,34,36,36,37,37,38,38,39,39,40,40,41,41,43,43,45,45,46,46],"right_children":[2,4,6,8,10,12,14,16,18,20,22,-1,24,26,-1,28,30,32,34,36,38,40,42,-1,-1,44,46,48,50,52,54,-1,56,58,60,-1,62,64,66,68,70,72,-1,74,-1,76,78,-1,-1,-1,-1,-1,-1,-1,-1,-1,-1,-1,-1,-1,-1,-1,-1,-1,-1,-1,-1,-1,-1,-1,-1,-1,-1,-1,-1,-1,-1,-1,-1],"split_conditions":[8.22283E2,2.9706668E2,-6.0797658E-2,1.716563E-2,2.7976565E0,6.5820864E-3,2.5302788E1,6.997884E2,3.2273594E1,1.634756E1,7.372865E2,-9.990183E-2,1.9059486E2,2E1,-9.500772E-2,7.6119793E-3,5.0139637E1,8.109571E1,2.2722282E0,2.9035285E0,5.029E2,4.6449833E0,6.997884E2,-9.191049E-2,9.496297E-2,5.516761E0,8.080294E2,1.427087E-4,8.07309E1,1.1382843E-2,1.2132321E1,-9.722502E-2,1.5979477E1,4.056939E1,7.549266E-3,-9.818849E-2,3.6513333E2,7.530666E2,7.326665E2,7.849627E1,6.654705E2,7.967258E1,-9.880506E-2,8.280936E1,-9.462413E-2,1.6739314E-2,7.517407E-3,-8.2748435E-2,9.249718E-2,-3.6279537E-2,-6.856734E-4,5.5849027E-2,-9.831873E-2,-9.732558E-2,-1.2618204E-3,-9.667139E-2,9.515913E-2,9.713587E-2,-9.640361E-2,-6.8467804E-3,-8.9103274E-2,9.046998E-2,-9.753405E-2,-9.511028E-2,-2.7532667E-2,9.752204E-2,-9.835371E-2,9.426194E-2,-9.764259E-2,8.2897566E-2,-9.517713E-2,2.0363024E-2,-4.559421E-2,9.3581244E-2,-9.7322784E-2,3.7040673E-2,-1.0024375E-1,-1.015054E-1,9.168762E-2],"split_indices":[1,54,79,67,75,48,76,65,87,72,93,0,71,0,0,89,85,52,91,91,70,90,65,0,0,91,33,96,84,57,92,0,76,37,73,0,54,93,93,68,45,53,0,37,0,67,89,0,0,0,0,0,0,0,0,0,0,0,0,0,0,0,0,0,0,0,0,0,0,0,0,0,0,0,0,0,0,0,0],"split_type":[0,0,0,0,0,0,0,0,0,0,0,0,0,0,0,0,0,0,0,0,0,0,0,0,0,0,0,0,0,0,0,0,0,0,0,0,0,0,0,0,0,0,0,0,0,0,0,0,0,0,0,0,0,0,0,0,0,0,0,0,0,0,0,0,0,0,0,0,0,0,0,0,0,0,0,0,0,0,0],"sum_hessian":[6.7421425E5,5.1962416E5,1.5459011E5,3.5419706E5,1.654271E5,7.898781E2,1.5380023E5,2.9768178E5,5.6515285E4,4.122755E4,1.2419955E5,6.135689E2,1.763092E2,1.534132E5,3.8703647E2,2.6079044E5,3.6891336E4,3.6043494E3,5.2910934E4,3.9846292E3,3.724292E4,1.3215236E4,1.10984305E5,1.1996985E1,1.6431223E2,1.3243116E5,2.0982041E4,3.9648074E4,2.2114236E5,1.9455271E4,1.7436066E4,7.596674E2,2.844682E3,1.3536244E3,5.155731E4,5.9738916E2,3.38724E3,3.456316E4,2.6797627E3,1.1798792E3,1.2035356E4,1.0591474E5,5.0695635E3,1.3229648E5,1.3466792E2,6.4965444E3,1.4485497E4,3.792206E4,1.7260182E3,1.6546189E5,5.5680457E4,1.8112076E4,1.3431952E3,2.9553965E3,1.448067E4,1.628085E2,2.6818735E3,1.1838413E3,1.697831E2,5.697902E3,4.585941E4,3.2603733E3,1.26866905E2,2.1314807E4,1.3248354E4,2.3468816E3,3.328812E2,9.959923E2,1.8388687E2,5.462391E2,1.1489118E4,9.7241305E4,8.673442E3,1.3225933E5,3.7161114E1,5.924267E3,5.72277E2,8.788146E1,1.4397615E4],"tree_param":{"num_deleted":"0","num_feature":"98","num_nodes":"79","size_leaf_vector":"1"}},{"base_weights":[-7.397033E-3,-5.1735675E-1,1.7030762E0,-3.182216E-2,-6.32291E-1,-1.1327465E0,1.7176267E0,-1.013697E0,1.8576548E-1,-1.0612268E0,-5.300062E-1,1.6239846E0,-9.51558E-2,1.7264311E0,-9.091364E-2,-1.4433041E0,8.581503E-1,-2.514146E-1,5.2159727E-1,-1.4079163E0,-3.9680544E-1,-5.773093E-1,5.534757E-1,-8.5947745E-2,9.085854E-2,1.7855562E0,1.3700559E0,-9.365294E-2,-8.198537E-1,1.5311629E0,-1.1449413E0,-1.2350003E0,3.3483046E-1,-1.4698555E0,6.632565E-1,-4.6720925E-1,-1.6616371E0,4.1959605E-1,-1.2487745E0,-1.8660823E-1,-7.118791E-1,-9.73612E-2,9.0081394E-1,1.789212E0,-9.053917E-2,-1.01297595E-1,1.4572303E0,3.0833721E-2,-7.819154E-2,8.932301E-2,-9.545501E-2,-9.4034605E-2,8.911137E-2,-8.08743E-2,1.0515951E-2,4.578203E-2,-5.460621E-2,1.0324621E-1,-8.374079E-2,-9.769975E-3,4.7768027E-2,-6.783363E-2,5.178207E-2,-9.392217E-2,-6.954564E-2,-4.600424E-2,4.5888394E-2,-7.3935874E-2,2.6719978E-2,-6.6656075E-2,-2.7029697E-4,4.8865523E-2,-3.7356608E-2,5.7901707E-2,-9.672808E-2,-9.739284E-2,8.950889E-2,4.2979192E-2,8.8063136E-2],"categories":[],"categories_nodes":[],"categories_segments":[],"categories_sizes":[],"default_left":[0,0,0,0,0,0,0,0,0,0,0,0,0,0,0,0,0,0,0,0,0,0,0,0,0,0,0,0,0,0,0,0,0,0,0,0,0,0,0,0,0,0,0,0,0,0,0,0,0,0,0,0,0,0,0,0,0,0,0,0,0,0,0,0,0,0,0,0,0,0,0,0,0,0,0,0,0,0,0],"id":2,"left_children":[1,3,5,7,9,11,13,15,17,19,21,23,-1,25,-1,27,29,31,33,35,37,39,41,-1,-1,43,45,-1,47,49,51,53,55,57,59,61,63,65,67,69,71,-1,73,75,-1,-1,77,-1,-1,-1,-1,-1,-1,-1,-1,-1,-1,-1,-1,-1,-1,-1,-1,-1,-1,-1,-1,-1,-1,-1,-1,-1,-1,-1,-1,-1,-1,-1,-1],"loss_changes":[5.876882E5,2.8962922E4,6.3867812E3,2.1224191E4,1.8411688E4,1.6818613E3,4.7957188E3,1.4493291E4,1.1939822E4,1.8612523E4,1.736771E4,1.1497446E2,0E0,3.2333125E3,0E0,3.9257285E3,4.5376387E3,2.0373002E4,1.2975852E4,1.2672406E4,1.9272455E4,1.7070805E4,1.2314719E4,0E0,0E0,1.734875E3,6.4734336E3,0E0,6.395041E3,2.215728E3,1.826955E3,7.294367E3,1.8348379E4,2.2165312E3,1.0770004E4,1.5080285E4,2.451914E3,9.444333E3,5.5602266E3,1.728141E4,1.4382109E4,0E0,9.0805205E3,4.7840625E2,0E0,0E0,3.870586E3,0E0,0E0,0E0,0E0,0E0,0E0,0E0,0E0,0E0,0E0,0E0,0E0,0E0,0E0,0E0,0E0,0E0,0E0,0E0,0E0,0E0,0E0,0E0,0E0,0E0,0E0,0E0,0E0,0E0,0E0,0E0,0E0],"parents":[2147483647,0,0,1,1,2,2,3,3,4,4,5,5,6,6,7,7,8,8,9,9,10,10,11,11,13,13,15,15,16,16,17,17,18,18,19,19,20,20,21,21,22,22,25,25,26,26,28,28,29,29,30,30,31,31,32,32,33,33,34,34,35,35,36,36,37,37,38,38,39,39,40,40,42,42,43,43,46,46],"right_children":[2,4,6,8,10,12,14,16,18,20,22,24,-1,26,-1,28,30,32,34,36,38,40,42,-1,-1,44,46,-1,48,50,52,54,56,58,60,62,64,66,68,70,72,-1,74,76,-1,-1,78,-1,-1,-1,-1,-1,-1,-1,-1,-1,-1,-1,-1,-1,-1,-1,-1,-1,-1,-1,-1,-1,-1,-1,-1,-1,-1,-1,-1,-1,-1,-1,-1],"split_conditions":[8.22283E2,1.919531E1,-6.0797658E-2,4.981712E1,7.905322E1,6.1396446E0,2.5302788E1,7.05107E2,2.6468332E2,4.204778E2,4.6455E2,7.8029034E2,-9.51558E-2,2E1,-9.091364E-2,6.6305547E0,1.3761093E-2,6.832605E0,7.344895E2,4.129155E2,2.1998268E1,1.3145044E-2,7E0,-8.5947745E-2,9.085854E-2,5.516761E0,1.1656707E1,-9.365294E-2,6.336239E0,1.4897948E1,2.322242E1,3.443361E0,1.4533746E-2,4.3591457E1,1.4464044E-2,8.426844E0,3.0540648E0,2.8882004E-2,2.3327072E1,7.3967285E2,2.3346634E0,-9.73612E-2,8.0992676E1,4.6625057E1,-9.053917E-2,-1.01297595E-1,4.124603E0,3.0833721E-2,-7.819154E-2,8.932301E-2,-9.545501E-2,-9.4034605E-2,8.911137E-2,-8.08743E-2,1.0515951E-2,4.578203E-2,-5.460621E-2,1.0324621E-1,-8.374079E-2,-9.769975E-3,4.7768027E-2,-6.783363E-2,5.178207E-2,-9.392217E-2,-6.954564E-2,-4.600424E-2,4.5888394E-2,-7.3935874E-2,2.6719978E-2,-6.6656075E-2,-2.7029697E-4,4.8865523E-2,-3.7356608E-2,5.7901707E-2,-9.672808E-2,-9.739284E-2,8.950889E-2,4.2979192E-2,8.8063136E-2],"split_indices":[1,72,79,53,68,60,76,81,86,82,86,33,0,0,0,90,83,90,93,66,88,83,0,0,0,91,92,0,74,92,56,75,83,5,83,74,75,94,92,93,91,0,52,71,0,0,79,0,0,0,0,0,0,0,0,0,0,0,0,0,0,0,0,0,0,0,0,0,0,0,0,0,0,0,0,0,0,0,0],"split_type":[0,0,0,0,0,0,0,0,0,0,0,0,0,0,0,0,0,0,0,0,0,0,0,0,0,0,0,0,0,0,0,0,0,0,0,0,0,0,0,0,0,0,0,0,0,0,0,0,0,0,0,0,0,0,0,0,0,0,0,0,0,0,0,0,0,0,0,0,0,0,0,0,0,0,0,0,0,0,0],"sum_hessian":[6.7374175E5,5.190062E5,1.5473558E5,9.934193E4,4.1966428E5,7.894928E2,1.5394608E5,1.8020387E4,8.132154E4,8.080321E4,3.3886106E5,1.7219456E2,6.172982E2,1.5356422E5,3.8186743E2,1.465675E4,3.363636E3,3.5329914E4,4.5991625E4,5.309669E4,2.770652E4,3.2468622E5,1.4174828E4,8.975888E0,1.6321867E2,1.3170881E5,2.1855404E4,8.674954E3,5.9817954E3,2.5178926E3,8.457434E2,1.3193358E4,2.2136557E4,3.053666E3,4.293796E4,1.1279417E4,4.1817273E4,1.4148854E4,1.3557667E4,8.318238E4,2.4150384E5,1.7281584E3,1.244667E4,1.3157556E5,1.3324796E2,5.464239E2,2.130898E4,2.041016E3,3.9407795E3,2.3443987E3,1.7349388E2,6.7614923E2,1.6959421E2,1.0432427E4,2.7609314E3,1.57331045E4,6.403451E3,1.6686188E2,2.8868042E3,1.0899273E4,3.2038688E4,7.0857856E3,4.193631E3,2.3217705E4,1.8599568E4,3.8349858E3,1.0313868E4,1.20092295E4,1.5484373E3,1.1351593E4,7.183079E4,4.9365513E3,2.365673E5,1.1411986E4,1.0346833E3,3.3476948E1,1.315421E5,7.186354E3,1.4122628E4],"tree_param":{"num_deleted":"0","num_feature":"98","num_nodes":"79","size_leaf_vector":"1"}},{"base_weights":[2.934572E-3,-4.845852E-1,1.6360285E0,-4.1163698E-2,-5.88514E-1,-1.082816E0,1.6497966E0,-1.0024172E0,1.4848468E-1,-5.187655E-1,-1.2659581E0,1.5640564E0,-9.106585E-2,1.6574223E0,-8.769253E-2,-1.4006548E0,1.0370765E0,-9.387993E-2,2.1171989E-1,-2.5214624E-1,-7.153013E-1,-1.443076E0,9.825279E-1,-8.228289E-2,8.727776E-2,1.7141057E0,1.3205575E0,-1.7024928E0,-3.05096E-1,1.5981088E0,-9.269592E-2,1.0112574E0,4.865828E-2,-6.077584E-1,3.2365162E-2,4.9091977E-1,-8.018759E-1,1.4613016E-1,-1.576071E0,1.7363373E0,-9.089693E-2,1.7176994E0,-8.702663E-2,5.8150005E-1,1.67E0,7.179704E-2,-8.787003E-2,4.8472214E-2,-9.015535E-2,8.744886E-2,-8.996778E-2,7.257493E-2,7.2619156E-3,-5.2108914E-2,1.7640946E-2,-4.4168647E-2,2.5003511E-2,-6.341892E-2,7.2614956E-3,4.6640784E-2,-9.548543E-2,-2.759465E-2,-5.9060372E-2,-9.061098E-2,5.1283486E-2,-8.295651E-2,-1.9265993E-2,9.3075894E-2,-9.3210645E-2,8.593969E-2,-9.684139E-2,-1.0097668E-1,4.0021837E-2,-9.948785E-2,8.461418E-2],"categories":[],"categories_nodes":[],"categories_segments":[],"categories_sizes":[],"default_left":[0,0,0,0,0,0,0,0,0,0,0,0,0,0,0,0,0,0,0,0,0,0,0,0,0,0,0,0,0,0,0,0,0,0,0,0,0,0,0,0,0,0,0,0,0,0,0,0,0,0,0,0,0,0,0,0,0,0,0,0,0,0,0,0,0,0,0,0,0,0,0,0,0,0,0],"id":3,"left_children":[1,3,5,7,9,11,13,15,17,19,21,23,-1,25,-1,27,29,-1,31,33,35,37,39,-1,-1,41,43,45,47,49,-1,51,53,55,57,59,61,63,65,67,-1,69,-1,71,73,-1,-1,-1,-1,-1,-1,-1,-1,-1,-1,-1,-1,-1,-1,-1,-1,-1,-1,-1,-1,-1,-1,-1,-1,-1,-1,-1,-1,-1,-1],"loss_changes":[5.372538E5,2.3948477E4,5.8089688E3,1.7988357E4,1.989164E4,1.5318989E3,4.0091562E3,1.3207713E4,1.055936E4,2.0000883E4,1.5651777E4,1.025943E2,0E0,2.9384375E3,0E0,4.4980527E3,4.312204E3,0E0,1.0419602E4,1.6387627E4,2.294611E4,7.6997266E3,6.062088E3,0E0,0E0,1.6395625E3,5.72884E3,1.8404102E3,5.6143975E3,1.1439131E3,0E0,5.1614004E3,2.2025857E4,2.1981582E4,1.3210301E4,1.5611949E4,1.9439984E4,4.8489956E3,3.3240625E3,1.0229697E3,0E0,5.3E2,0E0,4.0584963E3,1.2318281E3,0E0,0E0,0E0,0E0,0E0,0E0,0E0,0E0,0E0,0E0,0E0,0E0,0E0,0E0,0E0,0E0,0E0,0E0,0E0,0E0,0E0,0E0,0E0,0E0,0E0,0E0,0E0,0E0,0E0,0E0],"parents":[2147483647,0,0,1,1,2,2,3,3,4,4,5,5,6,6,7,7,8,8,9,9,10,10,11,11,13,13,15,15,16,16,18,18,19,19,20,20,21,21,22,22,25,25,26,26,27,27,28,28,29,29,31,31,32,32,33,33,34,34,35,35,36,36,37,37,38,38,39,39,41,41,43,43,44,44],"right_children":[2,4,6,8,10,12,14,16,18,20,22,24,-1,26,-1,28,30,-1,32,34,36,38,40,-1,-1,42,44,46,48,50,-1,52,54,56,58,60,62,64,66,68,-1,70,-1,72,74,-1,-1,-1,-1,-1,-1,-1,-1,-1,-1,-1,-1,-1,-1,-1,-1,-1,-1,-1,-1,-1,-1,-1,-1,-1,-1,-1,-1,-1,-1],"split_conditions":[8.22283E2,1.919531E1,-6.0797658E-2,4.925825E1,3.9215688E-2,6.1396446E0,2.6737497E1,2.1E1,7.2186957E2,5.0982468E1,8.2375305E1,7.8029034E2,-9.106585E-2,2E1,-8.769253E-2,6.647673E-5,3.976652E1,-9.387993E-2,-4.1422495E-1,7.461291E2,9.305411E0,1.657652E1,6.6E1,-8.228289E-2,8.727776E-2,5.516761E0,8.080294E2,-9.017342E0,1.5575005E-2,1.3665356E-2,-9.269592E-2,6.0113144E1,8E0,3.848E2,4E0,1.4E1,2.8406296E-2,8.035009E1,3.697576E0,1.6064934E-2,-9.089693E-2,8.280936E1,-8.702663E-2,7.871219E1,7.517407E-3,7.179704E-2,-8.787003E-2,4.8472214E-2,-9.015535E-2,8.744886E-2,-8.996778E-2,7.257493E-2,7.2619156E-3,-5.2108914E-2,1.7640946E-2,-4.4168647E-2,2.5003511E-2,-6.341892E-2,7.2614956E-3,4.6640784E-2,-9.548543E-2,-2.759465E-2,-5.9060372E-2,-9.061098E-2,5.1283486E-2,-8.295651E-2,-1.9265993E-2,9.3075894E-2,-9.3210645E-2,8.593969E-2,-9.684139E-2,-1.0097668E-1,4.0021837E-2,-9.948785E-2,8.461418E-2],"split_indices":[1,72,79,37,94,60,92,0,77,53,84,33,0,0,0,96,85,0,95,77,92,56,38,0,0,91,33,63,51,83,0,69,0,70,0,0,78,84,75,67,0,37,0,52,89,0,0,0,0,0,0,0,0,0,0,0,0,0,0,0,0,0,0,0,0,0,0,0,0,0,0,0,0,0,0],"split_type":[0,0,0,0,0,0,0,0,0,0,0,0,0,0,0,0,0,0,0,0,0,0,0,0,0,0,0,0,0,0,0,0,0,0,0,0,0,0,0,0,0,0,0,0,0,0,0,0,0,0,0,0,0,0,0,0,0,0,0,0,0,0,0,0,0,0,0,0,0,0,0,0,0,0,0],"sum_hessian":[6.7479956E5,5.1966666E5,1.551329E5,9.867257E4,4.209941E5,7.812358E2,1.5435167E5,1.6258797E4,8.241377E4,3.81697E5,3.9297094E4,1.7017854E2,6.1105725E2,1.5400714E5,3.4453146E2,1.3602956E4,2.655841E3,2.4934626E3,7.9920305E4,1.6197075E5,2.1972625E5,3.6427945E4,2.869147E3,8.676265E0,1.6150227E2,1.3182175E5,2.2185398E4,1.066428E4,2.9386758E3,2.2245815E3,4.3125952E2,1.3537396E4,6.6382914E4,7.198954E4,8.998121E4,1.4714083E4,2.0501216E5,2.8131006E3,3.3614844E4,2.2609426E3,6.0820435E2,1.3168527E5,1.364837E2,7.1230615E3,1.5062337E4,1.8293408E2,1.0481347E4,1.5879587E3,1.350717E3,2.1304612E3,9.412042E1,8.97452E3,4.5628765E3,1.4473385E4,5.1909527E4,5.7647688E4,1.4341853E4,7.1834263E3,8.279779E4,1.2427163E4,2.28692E3,1.23576555E5,8.14356E4,8.715282E2,1.9415724E3,3.1422615E4,2.1922305E3,2.1854443E3,7.549845E1,1.3164638E5,3.889177E1,5.5238116E2,6.57068E3,9.062289E1,1.4971715E4],"tree_param":{"num_deleted":"0","num_feature":"98","num_nodes":"75","size_leaf_vector":"1"}},{"base_weights":[3.097879E-3,-4.6448138E-1,1.5763034E0,-6.2656514E-2,-5.574622E-1,1.584472E0,-8.480436E-2,-8.33804E-1,1.3082933E-1,-4.942993E-1,-1.214494E0,1.6525522E0,1.1988708E0,-1.4056264E0,5.5189484E-1,-3.308473E-1,4.807754E-1,-1.1979171E0,-4.3639213E-1,-5.739618E-1,-1.564878E0,1.6550907E0,-8.7574825E-2,4.053772E-1,1.6084852E0,-1.6951083E-1,-1.6043769E0,1.1630278E0,-1.3691299E0,-1.2136648E0,2.2283535E-1,-1.5777384E0,6.188017E-1,1.4004799E0,-1.322177E0,-4.994703E-1,1.1468693E-1,5.4334146E-1,-1.2673095E0,2.4357155E-1,-1.7248808E0,-9.5702246E-2,1.6560197E0,1.0820128E0,-4.1656393E-1,-9.4835155E-2,1.6288531E0,-8.719453E-2,6.373156E-2,-8.522054E-2,1.0042304E-2,-9.080469E-2,7.91574E-2,-8.941266E-2,7.729455E-2,-7.69811E-2,4.6054525E-3,3.676398E-2,-4.0765148E-2,6.255784E-2,-8.978219E-2,-1.1959313E-2,4.2266067E-2,-8.970208E-2,9.286966E-2,-8.191041E-2,-1.4000026E-2,-5.402359E-2,-2.1120152E-2,5.1146742E-2,-1.707529E-2,-9.282424E-2,4.7717653E-2,6.49931E-2,-8.5466795E-2,-8.802502E-2,7.6268345E-2,8.722299E-2,-8.768711E-2,8.300843E-2,4.858693E-2,-9.507682E-2,6.395266E-2,2.310997E-2,-7.947485E-2,-1.0455634E-1,8.223062E-2],"categories":[],"categories_nodes":[],"categories_segments":[],"categories_sizes":[],"default_left":[0,0,0,0,0,0,0,0,0,0,0,0,0,0,0,0,0,0,0,0,0,0,0,0,0,0,0,0,0,0,0,0,0,0,0,0,0,0,0,0,0,0,0,0,0,0,0,0,0,0,0,0,0,0,0,0,0,0,0,0,0,0,0,0,0,0,0,0,0,0,0,0,0,0,0,0,0,0,0,0,0,0,0,0,0,0,0],"id":4,"left_children":[1,3,5,7,9,11,-1,13,15,17,19,21,23,25,27,29,31,33,35,37,39,41,-1,43,45,47,49,51,53,55,57,59,61,63,65,67,69,71,73,75,77,-1,79,81,83,-1,85,-1,-1,-1,-1,-1,-1,-1,-1,-1,-1,-1,-1,-1,-1,-1,-1,-1,-1,-1,-1,-1,-1,-1,-1,-1,-1,-1,-1,-1,-1,-1,-1,-1,-1,-1,-1,-1,-1,-1,-1],"loss_changes":[4.9406544E5,1.9344688E4,4.1161875E3,1.4517299E4,1.744889E4,4.0277812E3,0E0,1.5464563E4,1.2566677E4,1.5628836E4,8.27516E3,1.13025E3,7.4875547E3,3.3938281E3,6.6952563E3,1.6393418E4,1.2572252E4,9.419629E3,1.232032E4,1.0102994E4,6.897508E3,4.3546875E2,0E0,4.3635923E3,1.0878828E3,4.355609E3,2.1495488E3,5.417316E3,1.684542E3,5.502125E3,1.09657705E4,1.7162646E3,8.05905E3,1.9471162E3,9.168156E3,1.4239508E4,1.5083388E4,4.9279414E3,9.133964E3,4.981922E3,2.1957695E3,0E0,3.68375E2,2.5322095E3,3.6525876E3,0E0,8.8909766E2,0E0,0E0,0E0,0E0,0E0,0E0,0E0,0E0,0E0,0E0,0E0,0E0,0E0,0E0,0E0,0E0,0E0,0E0,0E0,0E0,0E0,0E0,0E0,0E0,0E0,0E0,0E0,0E0,0E0,0E0,0E0,0E0,0E0,0E0,0E0,0E0,0E0,0E0,0E0,0E0],"parents":[2147483647,0,0,1,1,2,2,3,3,4,4,5,5,7,7,8,8,9,9,10,10,11,11,12,12,13,13,14,14,15,15,16,16,17,17,18,18,19,19,20,20,21,21,23,23,24,24,25,25,26,26,27,27,28,28,29,29,30,30,31,31,32,32,33,33,34,34,35,35,36,36,37,37,38,38,39,39,40,40,42,42,43,43,44,44,46,46],"right_children":[2,4,6,8,10,12,-1,14,16,18,20,22,24,26,28,30,32,34,36,38,40,42,-1,44,46,48,50,52,54,56,58,60,62,64,66,68,70,72,74,76,78,-1,80,82,84,-1,86,-1,-1,-1,-1,-1,-1,-1,-1,-1,-1,-1,-1,-1,-1,-1,-1,-1,-1,-1,-1,-1,-1,-1,-1,-1,-1,-1,-1,-1,-1,-1,-1,-1,-1,-1,-1,-1,-1,-1,-1],"split_conditions":[8.22283E2,1.919531E1,2.5302788E1,4.994993E1,1.8054381E-2,2E1,-8.480436E-2,6.9307623E2,2.6611667E2,7.838863E1,4.9691395E1,8.280936E1,8.080294E2,7.7643135E1,1.4394374E-2,6.832605E0,7.344895E2,7.21979E2,8.129178E1,2.9975753E-2,6.724855E2,4.6625057E1,-8.7574825E-2,4.992532E1,7.517407E-3,4.9013542E1,1.9147842E1,2.7413487E-2,2.3267828E1,3.443361E0,1.4533746E-2,-1.0429474E2,1.4138791E-2,8.426844E0,6.889593E2,4E0,9.09E1,9E0,2.2401066E0,8.012479E1,2.4861112E-2,-9.5702246E-2,4.443142E0,7.900855E1,1.498E2,-9.4835155E-2,1.1342772E1,-8.719453E-2,6.373156E-2,-8.522054E-2,1.0042304E-2,-9.080469E-2,7.91574E-2,-8.941266E-2,7.729455E-2,-7.69811E-2,4.6054525E-3,3.676398E-2,-4.0765148E-2,6.255784E-2,-8.978219E-2,-1.1959313E-2,4.2266067E-2,-8.970208E-2,9.286966E-2,-8.191041E-2,-1.4000026E-2,-5.402359E-2,-2.1120152E-2,5.1146742E-2,-1.707529E-2,-9.282424E-2,4.7717653E-2,6.49931E-2,-8.5466795E-2,-8.802502E-2,7.6268345E-2,8.722299E-2,-8.768711E-2,8.300843E-2,4.858693E-2,-9.507682E-2,6.395266E-2,2.310997E-2,-7.947485E-2,-1.0455634E-1,8.223062E-2],"split_indices":[1,72,76,37,67,0,0,81,86,68,69,37,33,52,83,90,93,93,84,62,65,71,0,85,89,37,72,78,56,75,83,29,83,74,81,0,70,0,75,52,78,0,59,52,86,0,92,0,0,0,0,0,0,0,0,0,0,0,0,0,0,0,0,0,0,0,0,0,0,0,0,0,0,0,0,0,0,0,0,0,0,0,0,0,0,0,0],"split_type":[0,0,0,0,0,0,0,0,0,0,0,0,0,0,0,0,0,0,0,0,0,0,0,0,0,0,0,0,0,0,0,0,0,0,0,0,0,0,0,0,0,0,0,0,0,0,0,0,0,0,0,0,0,0,0,0,0,0,0,0,0,0,0,0,0,0,0,0,0,0,0,0,0,0,0,0,0,0,0,0,0,0,0,0,0,0,0],"sum_hessian":[6.716491E5,5.177632E5,1.5388594E5,9.72952E4,4.2046797E5,1.5350328E5,3.8266177E2,1.9514777E4,7.778043E4,3.8359344E5,3.6874535E4,1.30465516E5,2.3037764E4,1.3814197E4,5.7005806E3,3.3536484E4,4.424394E4,2.9167348E4,3.544261E5,1.3039621E4,2.3834916E4,1.3036881E5,9.6703384E1,7.844196E3,1.5193568E4,1.913731E3,1.1900467E4,4.3250522E3,1.3755281E3,1.2925798E4,2.061069E4,2.7795483E3,4.1464395E4,1.3307064E3,2.783664E4,3.180242E5,3.6401906E4,4.9933105E3,8.0463105E3,1.9373435E3,2.1897572E4,3.338987E1,1.3033542E5,4.3022207E3,3.5419753E3,8.724439E1,1.5106324E4,9.15481E2,9.9824994E2,1.1275696E4,6.2477057E2,5.3413257E2,3.7909197E3,1.2029534E3,1.7257474E2,1.0343577E4,2.5822207E3,1.3799361E4,6.8113276E3,1.9845259E2,2.5810957E3,8.660601E3,3.2803793E4,1.6614847E2,1.164558E3,2.1359102E4,6.477538E3,3.7242695E4,2.807815E5,1.2170349E4,2.4231559E4,7.296269E2,4.2636836E3,1.1816514E3,6.864659E3,7.5559937E2,1.1817441E3,1.8017232E2,2.17174E4,1.2954854E5,7.8688336E2,2.6599063E2,4.03623E3,2.0252561E3,1.5167192E3,6.3171047E1,1.5043153E4],"tree_param":{"num_deleted":"0","num_feature":"98","num_nodes":"87","size_leaf_vector":"1"}},{"base_weights":[5.663726E-3,-4.3207717E-1,1.5191422E0,-3.560022E-1,-9.3693626E-1,-7.7653575E-1,1.5357193E0,-5.445244E-1,-1.0408786E-1,2.3690255E-2,-1.240354E0,-1.7858311E0,1.503519E0,1.5436033E0,-8.197879E-2,-6.4606476E-1,6.491499E-2,3.0129194E-1,-3.4225187E-1,-1.6209526E0,4.1358706E-1,7.8001046E-1,-1.341969E0,-8.652795E-2,-9.9924505E-2,-8.429532E-2,8.237498E-2,1.5968564E0,1.2129464E0,-8.3680695E-1,-2.0808251E-1,4.2922917E-1,-1.4029174E0,3.5650405E-1,-1.8165189E0,-6.0387194E-1,2.6572987E-1,-9.1054566E-2,1.4749012E0,6.852435E-1,-1.4274869E0,-8.639374E-2,1.9376374E0,1.3395914E0,-1.4168322E0,1.6002824E0,-8.355267E-2,3.8175E-1,1.5683705E0,-6.438295E-2,-2.3845578E-2,-2.4905442E-3,-7.479761E-2,-7.490099E-2,3.420016E-2,-8.692049E-2,3.7877895E-2,-7.728487E-3,2.8422642E-2,-8.725389E-2,-9.347133E-2,7.656461E-3,-3.661815E-2,5.7009567E-2,-8.7276305E-4,-8.776972E-2,9.7307734E-2,-8.9036345E-2,4.30461E-2,-9.065731E-2,1.06879786E-1,1.0141142E-1,-8.59844E-2,8.964892E-2,-9.0205394E-2,-7.669133E-2,-1.9270482E-2,8.006585E-2,-8.903594E-2,-9.429726E-2,2.9779479E-2,7.977944E-2,-1.1224735E-1],"categories":[],"categories_nodes":[],"categories_segments":[],"categories_sizes":[],"default_left":[0,0,0,0,0,0,0,0,0,0,0,0,0,0,0,0,0,0,0,0,0,0,0,0,0,0,0,0,0,0,0,0,0,0,0,0,0,0,0,0,0,0,0,0,0,0,0,0,0,0,0,0,0,0,0,0,0,0,0,0,0,0,0,0,0,0,0,0,0,0,0,0,0,0,0,0,0,0,0,0,0,0,0],"id":5,"left_children":[1,3,5,7,9,11,13,15,17,19,21,23,25,27,-1,29,31,33,35,37,39,41,43,-1,-1,-1,-1,45,47,49,51,53,55,57,59,61,63,-1,65,67,69,-1,71,73,75,77,-1,79,81,-1,-1,-1,-1,-1,-1,-1,-1,-1,-1,-1,-1,-1,-1,-1,-1,-1,-1,-1,-1,-1,-1,-1,-1,-1,-1,-1,-1,-1,-1,-1,-1,-1,-1],"loss_changes":[4.426058E5,1.9902086E4,5.7049375E3,2.1387156E4,1.9778844E4,2.4769272E3,3.7276875E3,1.5939648E4,1.8610645E4,1.0446211E4,1.0588344E4,5.306885E0,1.5452362E2,2.6117812E3,0E0,1.8445086E4,1.9672803E4,8.342137E3,1.9313975E4,1.9370273E3,6.587143E3,7.1747114E3,9.858906E3,0E0,0E0,0E0,0E0,1.4340312E3,6.0833906E3,2.4956078E4,1.3653666E4,1.447277E4,5.303592E3,7.531297E3,3.5893555E0,8.25759E3,9.046433E3,0E0,2.9283533E2,4.9731816E3,2.332363E3,0E0,5.635908E2,1.9047021E3,5.7635938E3,4.495E2,0E0,2.9929675E3,1.5007969E3,0E0,0E0,0E0,0E0,0E0,0E0,0E0,0E0,0E0,0E0,0E0,0E0,0E0,0E0,0E0,0E0,0E0,0E0,0E0,0E0,0E0,0E0,0E0,0E0,0E0,0E0,0E0,0E0,0E0,0E0,0E0,0E0,0E0,0E0],"parents":[2147483647,0,0,1,1,2,2,3,3,4,4,5,5,6,6,7,7,8,8,9,9,10,10,11,11,12,12,13,13,15,15,16,16,17,17,18,18,19,19,20,20,21,21,22,22,27,27,28,28,29,29,30,30,31,31,32,32,33,33,34,34,35,35,36,36,38,38,39,39,40,40,42,42,43,43,44,44,45,45,47,47,48,48],"right_children":[2,4,6,8,10,12,14,16,18,20,22,24,26,28,-1,30,32,34,36,38,40,42,44,-1,-1,-1,-1,46,48,50,52,54,56,58,60,62,64,-1,66,68,70,-1,72,74,76,78,-1,80,82,-1,-1,-1,-1,-1,-1,-1,-1,-1,-1,-1,-1,-1,-1,-1,-1,-1,-1,-1,-1,-1,-1,-1,-1,-1,-1,-1,-1,-1,-1,-1,-1,-1,-1],"split_conditions":[8.22283E2,3.6403794E-2,2.1078882E-1,6.8702844E2,1.4425478E-2,6.5820864E-3,2.5302788E1,2.2289087E1,2.044025E1,3.8095236E-2,6.7368823E2,-6.0797658E-2,1.972463E1,2E1,-8.197879E-2,2.3572365E1,6.2694936E0,1.8221678E-2,3.374583E0,1.3699731E2,6.90199E2,8.035009E1,2.2722282E0,-8.652795E-2,-9.9924505E-2,-8.429532E-2,8.237498E-2,5.516761E0,4.124603E0,4.1918335E2,7.5577734E2,5.649633E-3,8.5799815E-3,7.0416243E-3,2.6611667E2,7.0207635E2,5.584679E0,-9.1054566E-2,3.3707865E-2,4.1664282E2,1.9263113E1,-8.639374E-2,2E0,6.7857723E0,9.322386E0,8.280936E1,-8.355267E-2,7.871219E1,3.2393587E0,-6.438295E-2,-2.3845578E-2,-2.4905442E-3,-7.479761E-2,-7.490099E-2,3.420016E-2,-8.692049E-2,3.7877895E-2,-7.728487E-3,2.8422642E-2,-8.725389E-2,-9.347133E-2,7.656461E-3,-3.661815E-2,5.7009567E-2,-8.7276305E-4,-8.776972E-2,9.7307734E-2,-8.9036345E-2,4.30461E-2,-9.065731E-2,1.06879786E-1,1.0141142E-1,-8.59844E-2,8.964892E-2,-9.0205394E-2,-7.669133E-2,-1.9270482E-2,8.006585E-2,-8.903594E-2,-9.429726E-2,2.9779479E-2,7.977944E-2,-1.1224735E-1],"split_indices":[1,78,79,81,67,48,76,92,72,78,81,79,92,0,0,88,74,67,59,29,65,84,91,0,0,0,0,91,79,82,61,89,73,89,86,45,90,0,30,82,92,0,0,90,90,37,0,52,75,0,0,0,0,0,0,0,0,0,0,0,0,0,0,0,0,0,0,0,0,0,0,0,0,0,0,0,0,0,0,0,0,0,0],"split_type":[0,0,0,0,0,0,0,0,0,0,0,0,0,0,0,0,0,0,0,0,0,0,0,0,0,0,0,0,0,0,0,0,0,0,0,0,0,0,0,0,0,0,0,0,0,0,0,0,0,0,0,0,0,0,0,0,0,0,0,0,0,0,0,0,0,0,0,0,0,0,0,0,0,0,0,0,0,0,0,0,0,0,0],"sum_hessian":[6.680708E5,5.1819488E5,1.4987595E5,4.5033728E5,6.785759E4,1.0741737E3,1.4880177E5,2.575766E5,1.927607E5,1.6288572E4,5.1569023E4,7.447274E2,3.2944635E2,1.4843373E5,3.6803687E2,2.2079008E5,3.6786508E4,7.133718E4,1.2142352E5,3.120918E3,1.3167654E4,2.4691626E3,4.9099863E4,5.9834863E2,1.4637878E2,1.3767288E1,3.1567905E2,1.2784086E5,2.059288E4,1.5380623E5,6.698385E4,2.9472242E4,7.3142666E3,6.952545E4,1.8117228E3,8.489321E4,3.6530316E4,2.9317969E3,1.8912106E2,1.1475095E4,1.6925596E3,7.796452E2,1.6895173E3,1.3330706E3,4.7766793E4,1.2770748E5,1.333799E2,6.168731E3,1.4424149E4,6.827433E4,8.553191E4,5.965379E4,7.330062E3,3.4406233E3,2.603162E4,6.3312974E3,9.829693E2,2.0380957E4,4.9144496E4,7.8530774E2,1.026415E3,1.23185625E4,7.257465E4,8.935356E3,2.7594957E4,2.3730558E1,1.653905E2,7.6252435E2,1.071257E4,1.5277805E3,1.6477902E2,1.6491146E3,4.040265E1,1.165422E3,1.676485E2,4.2900137E4,4.8666553E3,1.27668945E5,3.853431E1,5.309E2,5.637831E3,1.4322501E4,1.0164788E2],"tree_param":{"num_deleted":"0","num_feature":"98","num_nodes":"83","size_leaf_vector":"1"}},{"base_weights":[6.989751E-3,-4.1051117E-1,1.4729242E0,-5.389655E-1,-1.2274534E-1,-8.35372E-2,1.4859076E0,-6.2639296E-1,1.03462264E-1,-8.2741576E-1,1.0663577E-1,1.4927644E0,-7.942336E-2,-1.203466E0,-5.2105516E-1,7.0809853E-1,-5.6582445E-1,-9.909672E-1,1.675757E0,-1.6474456E0,2.145128E-1,1.5467149E0,1.1647996E0,-1.3145645E0,1.6781147E0,-7.3833245E-1,-1.1953755E-1,1.1375687E0,-4.6457133E-1,4.3053694E-2,-1.4605206E0,-1.1649067E0,1.3566145E0,1.854011E0,-8.904009E-2,-1.7385045E0,1.6207907E0,3.0437213E-1,-1.8103751E0,1.5499675E0,-8.083277E-2,-1.9428666E0,1.2412959E0,-7.178219E-2,5.175939E-2,-9.2275664E-2,9.991342E-2,4.3239996E-2,-4.0277205E-2,3.8332727E-2,-1.937072E-2,6.463126E-2,-9.604223E-2,-9.027346E-2,3.0740667E-2,2.8205875E-2,-9.366303E-2,6.742987E-2,-8.7535046E-2,-1.9798504E-2,-8.56543E-2,9.3276076E-2,-8.988081E-2,9.889323E-2,8.9145385E-2,-8.3942264E-2,-8.795144E-2,-8.474512E-2,1.06148496E-1,2.1020913E-2,-5.698219E-2,-9.113448E-2,-8.577741E-2,7.754885E-2,-8.5384324E-2,-8.85022E-2,-1.00291885E-1,3.7162833E-2,7.877271E-2],"categories":[],"categories_nodes":[],"categories_segments":[],"categories_sizes":[],"default_left":[0,0,0,0,0,0,0,0,0,0,0,0,0,0,0,0,0,0,0,0,0,0,0,0,0,0,0,0,0,0,0,0,0,0,0,0,0,0,0,0,0,0,0,0,0,0,0,0,0,0,0,0,0,0,0,0,0,0,0,0,0,0,0,0,0,0,0,0,0,0,0,0,0,0,0,0,0,0,0],"id":6,"left_children":[1,3,5,7,9,-1,11,13,15,17,19,21,-1,23,25,27,29,31,33,35,37,39,41,43,45,47,49,51,53,55,57,59,61,63,-1,65,67,69,71,73,-1,75,77,-1,-1,-1,-1,-1,-1,-1,-1,-1,-1,-1,-1,-1,-1,-1,-1,-1,-1,-1,-1,-1,-1,-1,-1,-1,-1,-1,-1,-1,-1,-1,-1,-1,-1,-1,-1],"loss_changes":[4.06353E5,1.910214E4,6.0095312E3,2.0067078E4,2.5779225E4,0E0,3.0921562E3,1.911611E4,1.7319965E4,1.6036262E4,2.2768191E4,2.5858438E3,0E0,1.5542844E4,2.3200852E4,1.1324975E4,1.1066285E4,1.5014031E4,1.4835669E3,2.0774688E3,2.0625387E4,1.2946875E3,4.914574E3,1.3299836E4,2.0371333E3,1.8594047E4,2.216811E4,7.8075586E3,8.726078E3,1.2071871E4,6.7079727E3,1.4427488E4,4.0750864E3,1.6598145E1,0E0,5.3535156E0,3.191022E2,1.8188053E4,2.4980469E0,4.1509375E2,0E0,1.8562012E0,3.355166E3,0E0,0E0,0E0,0E0,0E0,0E0,0E0,0E0,0E0,0E0,0E0,0E0,0E0,0E0,0E0,0E0,0E0,0E0,0E0,0E0,0E0,0E0,0E0,0E0,0E0,0E0,0E0,0E0,0E0,0E0,0E0,0E0,0E0,0E0,0E0,0E0],"parents":[2147483647,0,0,1,1,2,2,3,3,4,4,6,6,7,7,8,8,9,9,10,10,11,11,13,13,14,14,15,15,16,16,17,17,18,18,19,19,20,20,21,21,22,22,23,23,24,24,25,25,26,26,27,27,28,28,29,29,30,30,31,31,32,32,33,33,35,35,36,36,37,37,38,38,39,39,41,41,42,42],"right_children":[2,4,6,8,10,-1,12,14,16,18,20,22,-1,24,26,28,30,32,34,36,38,40,42,44,46,48,50,52,54,56,58,60,62,64,-1,66,68,70,72,74,-1,76,78,-1,-1,-1,-1,-1,-1,-1,-1,-1,-1,-1,-1,-1,-1,-1,-1,-1,-1,-1,-1,-1,-1,-1,-1,-1,-1,-1,-1,-1,-1,-1,-1,-1,-1,-1,-1],"split_conditions":[8.22283E2,3.0206668E2,-6.0797658E-2,6.997884E2,2.7976565E0,-8.35372E-2,2.6737497E1,7.658948E-3,5.0139637E1,8.117363E1,7.344895E2,2E1,-7.942336E-2,1.3707331E-4,8.0455505E1,2.9147474E-2,3.1030282E-2,5.029E2,1.634756E1,4.256573E2,6.997884E2,5.516761E0,1.1342772E1,8.056067E1,4.2754996E2,2.4042692E0,2.8156733E-2,2.5356667E2,3.2451115E0,2.1E1,5.8578396E0,7.9297035E1,7.326665E2,1.5914055E1,-8.904009E-2,1.919531E1,9.354732E-5,7.967258E1,3.202765E-2,8.280936E1,-8.083277E-2,7.871219E1,3.1007752E-2,-7.178219E-2,5.175939E-2,-9.2275664E-2,9.991342E-2,4.3239996E-2,-4.0277205E-2,3.8332727E-2,-1.937072E-2,6.463126E-2,-9.604223E-2,-9.027346E-2,3.0740667E-2,2.8205875E-2,-9.366303E-2,6.742987E-2,-8.7535046E-2,-1.9798504E-2,-8.56543E-2,9.3276076E-2,-8.988081E-2,9.889323E-2,8.9145385E-2,-8.3942264E-2,-8.795144E-2,-8.474512E-2,1.06148496E-1,2.1020913E-2,-5.698219E-2,-9.113448E-2,-8.577741E-2,7.754885E-2,-8.5384324E-2,-8.85022E-2,-1.00291885E-1,3.7162833E-2,7.877271E-2],"split_indices":[1,70,79,65,75,0,92,89,85,69,93,0,0,96,84,62,94,70,72,82,65,91,92,85,66,91,94,70,59,0,60,52,93,60,0,72,96,53,78,37,0,52,3,0,0,0,0,0,0,0,0,0,0,0,0,0,0,0,0,0,0,0,0,0,0,0,0,0,0,0,0,0,0,0,0,0,0,0,0],"split_type":[0,0,0,0,0,0,0,0,0,0,0,0,0,0,0,0,0,0,0,0,0,0,0,0,0,0,0,0,0,0,0,0,0,0,0,0,0,0,0,0,0,0,0,0,0,0,0,0,0,0,0,0,0,0,0,0,0,0,0,0,0,0,0,0,0,0,0,0,0,0,0,0,0,0,0,0,0,0,0],"sum_hessian":[6.639421E5,5.167667E5,1.471754E5,3.572809E5,1.5948578E5,6.0480756E2,1.465706E5,3.1448322E5,4.27977E4,3.916532E4,1.2032045E5,1.4624494E5,3.2565683E2,4.85424E4,2.659408E5,2.2484791E4,2.0312906E4,3.676386E4,2.401461E3,6.970227E3,1.1335023E5,1.2558274E5,2.06622E4,4.6740863E4,1.8015355E3,1.7256055E5,9.338027E4,1.6457533E4,6.0272593E3,1.2087684E4,8.225223E3,3.4228285E4,2.5355737E3,2.2841323E3,1.17328606E2,6.7817437E3,1.884837E2,1.0853459E5,4.815638E3,1.2545426E5,1.2848589E2,4.9580292E2,2.0166396E4,4.445077E4,2.290092E3,1.4965549E2,1.65188E3,6.9430435E3,1.656175E5,2.1674541E4,7.170573E4,1.5663973E4,7.935597E2,2.6877048E3,3.3395542E3,9.504128E3,2.583556E3,7.6976733E2,7.4554556E3,1.4246417E4,1.998187E4,2.1836672E3,3.519067E2,8.2327277E2,1.4608595E3,1.7570833E3,5.02466E3,2.4479565E1,1.6400414E2,1.00461836E5,8.0727515E3,4.246022E3,5.69616E2,1.2541593E5,3.8330864E1,1.4018303E2,3.556199E2,8.0988516E3,1.2067545E4],"tree_param":{"num_deleted":"0","num_feature":"98","num_nodes":"79","size_leaf_vector":"1"}},{"base_weights":[8.402445E-3,-3.9092815E-1,1.4300402E0,-3.2164785E-1,-8.515698E-1,-9.2360926E-1,1.4423504E0,-9.7770643E-1,-2.5633776E-1,-1.0429758E0,6.203042E-1,1.4894304E0,-8.0842964E-2,1.4497513E0,-7.7835836E-2,-1.1204973E0,1.6349733E0,2.7048278E-1,-3.1314662E-1,8.7028867E-1,-1.1384342E0,1.0344554E0,-1.7053398E0,-7.426261E-2,8.337937E-2,1.5029544E0,1.1310875E0,8.090762E-1,-1.2789812E0,1.8485854E0,-8.742791E-2,6.2728924E-1,-8.3801526E-1,-8.355164E-1,-2.2143531E-1,1.8768138E0,-8.350964E-2,1.2952375E0,-1.2036043E0,1.3369286E0,-8.504138E-2,-8.734443E-2,-8.22563E-2,1.5060884E0,-7.8355365E-2,-1.8561823E0,1.2050339E0,-8.5814066E-2,8.7753914E-2,3.6204964E-2,-6.898212E-2,9.3260996E-2,-8.407972E-2,-2.3941139E-2,5.3203356E-2,-6.966322E-2,4.8438635E-2,6.214851E-3,-5.49492E-2,1.3242069E-2,-1.8146595E-2,-8.127453E-2,9.838E-2,8.4085174E-2,-8.742692E-2,-2.2506835E-2,-7.005006E-2,-8.6116396E-2,7.353604E-2,-1.0436672E-1,7.534814E-2,-8.5121386E-2,-9.552478E-2,6.26767E-2,-1.03909485E-1],"categories":[],"categories_nodes":[],"categories_segments":[],"categories_sizes":[],"default_left":[0,0,0,0,0,0,0,0,0,0,0,0,0,0,0,0,0,0,0,0,0,0,0,0,0,0,0,0,0,0,0,0,0,0,0,0,0,0,0,0,0,0,0,0,0,0,0,0,0,0,0,0,0,0,0,0,0,0,0,0,0,0,0,0,0,0,0,0,0,0,0,0,0,0,0],"id":7,"left_children":[1,3,5,7,9,11,13,15,17,19,21,23,-1,25,-1,27,29,31,33,35,37,39,41,-1,-1,43,45,47,49,51,-1,53,55,57,59,61,-1,63,65,67,-1,-1,-1,69,-1,71,73,-1,-1,-1,-1,-1,-1,-1,-1,-1,-1,-1,-1,-1,-1,-1,-1,-1,-1,-1,-1,-1,-1,-1,-1,-1,-1,-1,-1],"loss_changes":[3.745714E5,1.643861E4,4.193625E3,1.918536E4,1.8972938E4,1.262802E3,3.197E3,1.5125555E4,1.2187686E4,1.0885047E4,7.466615E3,9.186612E1,0E0,2.4326562E3,0E0,1.1755832E4,1.5218794E3,1.5678565E4,1.7610094E4,7.246213E3,9.004203E3,5.4457246E3,5.810547E-2,0E0,0E0,1.1861875E3,4.54099E3,6.974374E3,7.1633086E3,1.19225586E2,0E0,1.44882E4,9.685094E3,1.388284E4,2.1515473E4,6.4842334E2,0E0,1.7448862E3,8.221641E3,2.4275918E3,0E0,0E0,0E0,3.89375E2,0E0,8.9538574E-1,3.1954766E3,0E0,0E0,0E0,0E0,0E0,0E0,0E0,0E0,0E0,0E0,0E0,0E0,0E0,0E0,0E0,0E0,0E0,0E0,0E0,0E0,0E0,0E0,0E0,0E0,0E0,0E0,0E0,0E0],"parents":[2147483647,0,0,1,1,2,2,3,3,4,4,5,5,6,6,7,7,8,8,9,9,10,10,11,11,13,13,15,15,16,16,17,17,18,18,19,19,20,20,21,21,22,22,25,25,26,26,27,27,28,28,29,29,31,31,32,32,33,33,34,34,35,35,37,37,38,38,39,39,43,43,45,45,46,46],"right_children":[2,4,6,8,10,12,14,16,18,20,22,24,-1,26,-1,28,30,32,34,36,38,40,42,-1,-1,44,46,48,50,52,-1,54,56,58,60,62,-1,64,66,68,-1,-1,-1,70,-1,72,74,-1,-1,-1,-1,-1,-1,-1,-1,-1,-1,-1,-1,-1,-1,-1,-1,-1,-1,-1,-1,-1,-1,-1,-1,-1,-1,-1,-1],"split_conditions":[8.22283E2,3.6403794E-2,-6.0797658E-2,7.349085E2,9.598893E0,6.1396446E0,2.5302788E1,5.0353333E2,2.1397082E-2,7.1881396E2,6.74E1,7.8029034E2,-8.0842964E-2,2E1,-7.7835836E-2,2.994429E1,2.5999844E0,6.150939E0,2.4350649E-2,2E0,2.2722282E0,4.617812E-2,1.8054381E-2,-7.426261E-2,8.337937E-2,5.516761E0,1.1342772E1,8.089897E1,8.870999E0,4.1642996E2,-8.742791E-2,7.478539E2,7.5226296E-3,1.5753925E1,6.9320095E-3,8.03315E1,-8.350964E-2,6.7857723E0,1.4425478E-2,7.3443396E2,-8.504138E-2,-8.734443E-2,-8.22563E-2,4.3711502E1,-7.8355365E-2,7.871219E1,7.974172E1,-8.5814066E-2,8.7753914E-2,3.6204964E-2,-6.898212E-2,9.3260996E-2,-8.407972E-2,-2.3941139E-2,5.3203356E-2,-6.966322E-2,4.8438635E-2,6.214851E-3,-5.49492E-2,1.3242069E-2,-1.8146595E-2,-8.127453E-2,9.838E-2,8.4085174E-2,-8.742692E-2,-2.2506835E-2,-7.005006E-2,-8.6116396E-2,7.353604E-2,-1.0436672E-1,7.534814E-2,-8.5121386E-2,-9.552478E-2,6.26767E-2,-1.03909485E-1],"split_indices":[1,78,79,93,90,60,76,54,78,77,38,33,0,0,0,87,91,90,78,0,91,78,67,0,0,91,92,68,92,50,0,93,57,92,73,84,0,90,67,61,0,0,0,87,0,52,69,0,0,0,0,0,0,0,0,0,0,0,0,0,0,0,0,0,0,0,0,0,0,0,0,0,0,0,0],"split_type":[0,0,0,0,0,0,0,0,0,0,0,0,0,0,0,0,0,0,0,0,0,0,0,0,0,0,0,0,0,0,0,0,0,0,0,0,0,0,0,0,0,0,0,0,0,0,0,0,0,0,0,0,0,0,0,0,0,0,0,0,0,0,0,0,0,0,0,0,0,0,0,0,0,0,0],"sum_hessian":[6.597992E5,5.151086E5,1.4469058E5,4.4776644E5,6.734217E4,7.524457E2,1.4393812E5,4.053789E4,4.0722856E5,5.959286E4,7.749308E3,1.6767168E2,5.84774E2,1.4358433E5,3.5380695E2,3.8437723E4,2.1001682E3,3.9638133E4,3.675904E5,2.8315825E3,5.6761277E4,6.5783833E3,1.1709248E3,9.06002E0,1.5861165E2,1.23038484E5,2.054584E4,2.917117E3,3.5520605E4,1.9758789E3,1.2428924E2,2.9986445E4,9.6516875E3,5.4897402E4,3.12693E5,2.0282587E3,8.03324E2,1.4798489E3,5.528143E4,5.923826E3,6.545575E2,6.762727E2,4.9465207E2,1.2291352E5,1.2496447E2,4.9572073E2,2.005012E4,7.9474E2,2.122377E3,1.6993145E3,3.382129E4,1.9670814E3,8.797451E0,8.488858E3,2.1497588E4,7.38302E3,2.2686675E3,1.1823799E4,4.30736E4,7.047906E4,2.4221395E5,5.0820667E1,1.977438E3,1.3135198E3,1.663291E2,1.1476956E4,4.3804473E4,2.4771715E2,5.676109E3,2.932216E1,1.22884195E5,1.3784416E2,3.578766E2,1.9758857E4,2.9126157E2],"tree_param":{"num_deleted":"0","num_feature":"98","num_nodes":"75","size_leaf_vector":"1"}},{"base_weights":[1.1761437E-2,-3.7683037E-1,1.3918371E0,1.2450681E-2,-4.6799535E-1,-8.9069253E-1,1.4034932E0,-8.266122E-1,2.1176472E-1,-1.1232895E0,-4.139194E-1,1.4407787E0,-7.843972E-2,1.4106022E0,-7.575265E-2,-1.1225754E0,6.4764524E-1,-1.6871197E0,2.6744705E-1,1.0401819E0,-1.231488E0,-1.8922175E-1,-5.803243E-1,-7.20136E-2,8.067503E-2,1.4624256E0,1.1234454E0,7.4553156E-1,-1.4673415E0,1.323328E0,-1.0987023E0,-8.072002E-2,-1.7520777E0,-1.324111E-1,5.232072E-1,-8.0833554E-2,1.7819618E0,-1.5031329E0,-3.347202E-1,-4.969199E-1,8.8028945E-2,-4.0164295E-1,-9.3963975E-1,1.4647683E0,-7.885035E-2,-8.904963E-2,1.1892642E0,-8.239305E-2,7.004499E-2,-1.2299243E-2,-7.971972E-2,7.598458E-2,-8.417831E-2,-8.608623E-2,7.5978756E-2,-8.493423E-2,-9.103035E-2,-6.683832E-2,2.0701313E-2,1.2154109E-2,6.567172E-2,-8.38505E-2,9.2580885E-2,-7.782757E-2,4.5708507E-2,2.107062E-2,-8.689443E-2,7.712829E-2,-2.8599584E-2,2.2197582E-2,-1.9052422E-2,-1.6184794E-2,-7.794224E-2,-1.1981447E-2,-6.263215E-2,-9.668976E-2,7.328608E-2,6.163379E-2,-9.865931E-2],"categories":[],"categories_nodes":[],"categories_segments":[],"categories_sizes":[],"default_left":[0,0,0,0,0,0,0,0,0,0,0,0,0,0,0,0,0,0,0,0,0,0,0,0,0,0,0,0,0,0,0,0,0,0,0,0,0,0,0,0,0,0,0,0,0,0,0,0,0,0,0,0,0,0,0,0,0,0,0,0,0,0,0,0,0,0,0,0,0,0,0,0,0,0,0,0,0,0,0],"id":8,"left_children":[1,3,5,7,9,11,13,15,17,19,21,23,-1,25,-1,27,29,31,33,35,37,39,41,-1,-1,43,45,47,49,51,53,-1,55,57,59,-1,61,63,65,67,69,71,73,75,-1,-1,77,-1,-1,-1,-1,-1,-1,-1,-1,-1,-1,-1,-1,-1,-1,-1,-1,-1,-1,-1,-1,-1,-1,-1,-1,-1,-1,-1,-1,-1,-1,-1,-1],"loss_changes":[3.5198803E5,1.817521E4,3.8378438E3,1.6252232E4,1.470393E4,1.1615413E3,2.9789062E3,8.139794E3,8.303464E3,7.4058945E3,1.4332875E4,8.479846E1,0E0,2.1282188E3,0E0,1.0006764E4,3.682199E3,7.739746E0,7.8021714E3,2.9732114E3,7.3382812E3,1.391394E4,1.4139117E4,0E0,0E0,8.6559375E2,4.185828E3,3.7998823E3,2.0347891E3,1.3308088E3,1.4230382E3,0E0,1.1879883E0,1.9587248E4,1.0299589E4,0E0,2.8709717E2,2.9871133E3,7.4332407E3,1.1836871E4,1.432412E4,1.3266996E4,1.6025781E4,3.9526562E2,0E0,0E0,2.9404922E3,0E0,0E0,0E0,0E0,0E0,0E0,0E0,0E0,0E0,0E0,0E0,0E0,0E0,0E0,0E0,0E0,0E0,0E0,0E0,0E0,0E0,0E0,0E0,0E0,0E0,0E0,0E0,0E0,0E0,0E0,0E0,0E0],"parents":[2147483647,0,0,1,1,2,2,3,3,4,4,5,5,6,6,7,7,8,8,9,9,10,10,11,11,13,13,15,15,16,16,17,17,18,18,19,19,20,20,21,21,22,22,25,25,26,26,27,27,28,28,29,29,30,30,32,32,33,33,34,34,36,36,37,37,38,38,39,39,40,40,41,41,42,42,43,43,46,46],"right_children":[2,4,6,8,10,12,14,16,18,20,22,24,-1,26,-1,28,30,32,34,36,38,40,42,-1,-1,44,46,48,50,52,54,-1,56,58,60,-1,62,64,66,68,70,72,74,76,-1,-1,78,-1,-1,-1,-1,-1,-1,-1,-1,-1,-1,-1,-1,-1,-1,-1,-1,-1,-1,-1,-1,-1,-1,-1,-1,-1,-1,-1,-1,-1,-1,-1,-1],"split_conditions":[8.22283E2,1.919531E1,-6.0797658E-2,5.0007885E1,7.838863E1,6.1396446E0,2.5302788E1,7.05107E2,7.2186957E2,7.240612E2,5.0982468E1,7.8029034E2,-7.843972E-2,2E1,-7.575265E-2,-4.680075E-1,3.9873447E1,7.344895E2,2.5073334E2,8.426844E0,6.889593E2,7.49581E2,1.4E1,-7.20136E-2,8.067503E-2,8.280936E1,1.1342772E1,6.6733527E0,-2.8588076E-4,7.470359E-3,8.674573E1,-8.072002E-2,2.6611667E2,6.8447785E0,3.0454546E-2,-8.0833554E-2,7.828729E1,7.7286206E2,7.877442E2,2.994429E1,2.980286E-2,1.8221678E-2,4.176198E2,4.6625057E1,-7.885035E-2,-8.904963E-2,7.974172E1,-8.239305E-2,7.004499E-2,-1.2299243E-2,-7.971972E-2,7.598458E-2,-8.417831E-2,-8.608623E-2,7.5978756E-2,-8.493423E-2,-9.103035E-2,-6.683832E-2,2.0701313E-2,1.2154109E-2,6.567172E-2,-8.38505E-2,9.2580885E-2,-7.782757E-2,4.5708507E-2,2.107062E-2,-8.689443E-2,7.712829E-2,-2.8599584E-2,2.2197582E-2,-1.9052422E-2,-1.6184794E-2,-7.794224E-2,-1.1981447E-2,-6.263215E-2,-9.668976E-2,7.328608E-2,6.163379E-2,-9.865931E-2],"split_indices":[1,72,79,53,68,60,76,81,77,93,53,33,0,0,0,95,85,93,54,74,81,93,0,0,0,37,92,90,80,89,36,0,86,90,94,0,84,77,93,87,94,67,66,71,0,0,69,0,0,0,0,0,0,0,0,0,0,0,0,0,0,0,0,0,0,0,0,0,0,0,0,0,0,0,0,0,0,0,0],"split_type":[0,0,0,0,0,0,0,0,0,0,0,0,0,0,0,0,0,0,0,0,0,0,0,0,0,0,0,0,0,0,0,0,0,0,0,0,0,0,0,0,0,0,0,0,0,0,0,0,0,0,0,0,0,0,0,0,0,0,0,0,0,0,0,0,0,0,0,0,0,0,0,0,0,0,0,0,0,0,0],"sum_hessian":[6.5634175E5,5.1213828E5,1.4420348E5,9.717878E4,4.149595E5,7.322696E2,1.4347122E5,1.8652639E4,7.852614E4,3.1631246E4,3.8332825E5,1.6473787E2,5.675317E2,1.4312311E5,3.4810342E2,1.5534303E4,3.1183364E3,2.2362434E3,7.62899E4,1.5061699E3,3.0125076E4,1.6309802E5,2.2023023E5,8.902528E0,1.5583534E2,1.21238945E5,2.1884168E4,2.4200671E3,1.3114235E4,2.2485771E3,8.697593E2,1.0672858E3,1.1689576E3,2.976128E4,4.652862E4,3.2847665E2,1.1776932E3,2.3120762E4,7.004315E3,7.730389E4,8.579413E4,1.4708803E5,7.3142195E4,1.21146086E5,9.285776E1,4.8435992E2,2.1399807E4,5.198974E2,1.9001698E3,1.2359553E3,1.187828E4,2.111201E3,1.373762E2,7.028562E2,1.6690308E2,6.7153436E2,4.974233E2,9.2883E3,2.047298E4,3.435244E4,1.2176178E4,2.2792435E1,1.1549008E3,2.2621225E4,4.9953732E2,4.5520356E3,2.4522793E3,2.7437773E3,7.456011E4,4.8780734E4,3.7013395E4,1.3780689E5,9.281151E3,2.2600178E4,5.054202E4,3.339706E1,1.2111269E5,2.1110627E4,2.8918042E2],"tree_param":{"num_deleted":"0","num_feature":"98","num_nodes":"79","size_leaf_vector":"1"}},{"base_weights":[1.9766185E-4,-3.6596644E-1,1.3520842E0,-4.9063188E-1,-9.488336E-2,-8.6956966E-1,1.3637556E0,-1.3554877E0,-4.2888537E-1,-7.5546247E-1,1.1624253E-1,1.4181114E0,-7.6304704E-2,1.3707206E0,-7.3801406E-2,-1.5874287E0,1.2863041E0,-1.4042996E-1,-6.3723975E-1,-1.6261343E0,-4.557497E-1,1.9309658E-1,-1.7520866E0,-6.899096E-2,7.826262E-2,1.4256192E0,1.0505443E0,5.273803E-1,-1.6791131E0,-8.9537844E-2,2.059795E0,1.5258701E-1,-5.437021E-1,-1.2524438E0,-4.0339065E-1,1.2135373E0,-1.6847734E0,7.118297E-1,-6.981158E-1,-2.563804E-1,5.967088E-1,-9.397506E-2,-1.72462E0,1.4287708E0,-7.670807E-2,3.5114548E-1,1.4092697E0,1.1206277E-1,-8.477926E-2,-8.54643E-2,6.485366E-2,-8.789633E-2,1.0547467E-1,1.6937982E-2,-5.486838E-2,-6.1546754E-2,1.7974688E-2,-8.126315E-2,-1.6754473E-2,1.984134E-3,-3.8698055E-2,9.3279116E-2,-8.4584765E-2,-8.693998E-2,5.1362064E-2,-8.555687E-2,7.3604725E-2,2.6930226E-2,-5.115329E-2,-3.8314577E-2,1.03444625E-2,3.7325718E-2,-3.7219692E-2,-8.712537E-2,-8.06222E-2,-9.697286E-2,7.148477E-2,4.766554E-2,-3.2643955E-2,7.184597E-2,-1.1124598E-1],"categories":[],"categories_nodes":[],"categories_segments":[],"categories_sizes":[],"default_left":[0,0,0,0,0,0,0,0,0,0,0,0,0,0,0,0,0,0,0,0,0,0,0,0,0,0,0,0,0,0,0,0,0,0,0,0,0,0,0,0,0,0,0,0,0,0,0,0,0,0,0,0,0,0,0,0,0,0,0,0,0,0,0,0,0,0,0,0,0,0,0,0,0,0,0,0,0,0,0,0,0],"id":9,"left_children":[1,3,5,7,9,11,13,15,17,19,21,23,-1,25,-1,27,29,31,33,35,37,39,41,-1,-1,43,45,47,49,-1,51,53,55,57,59,61,63,65,67,69,71,-1,73,75,-1,77,79,-1,-1,-1,-1,-1,-1,-1,-1,-1,-1,-1,-1,-1,-1,-1,-1,-1,-1,-1,-1,-1,-1,-1,-1,-1,-1,-1,-1,-1,-1,-1,-1,-1,-1],"loss_changes":[3.2019153E5,1.7200672E4,3.5758281E3,1.8617586E4,2.2361264E4,1.0851411E3,2.7145E3,1.4237363E4,1.955746E4,1.0132805E4,1.744678E4,6.856827E1,0E0,2.4031562E3,0E0,4.1420234E3,4.467867E3,1.6126605E4,2.7181164E4,1.6578789E3,8.1758574E3,2.11718E4,1.3558594E1,0E0,0E0,1.0914688E3,5.024205E3,3.3877944E3,1.8404531E3,0E0,2.8818457E2,1.8394223E4,3.5648883E4,1.779671E4,2.2477967E4,3.8537808E2,1.4293633E3,9.151523E3,9.615119E3,1.3043431E4,1.2353996E4,0E0,5.1396484E0,3.6601562E2,0E0,4.106387E3,1.3333379E3,0E0,0E0,0E0,0E0,0E0,0E0,0E0,0E0,0E0,0E0,0E0,0E0,0E0,0E0,0E0,0E0,0E0,0E0,0E0,0E0,0E0,0E0,0E0,0E0,0E0,0E0,0E0,0E0,0E0,0E0,0E0,0E0,0E0,0E0],"parents":[2147483647,0,0,1,1,2,2,3,3,4,4,5,5,6,6,7,7,8,8,9,9,10,10,11,11,13,13,15,15,16,16,17,17,18,18,19,19,20,20,21,21,22,22,25,25,26,26,27,27,28,28,30,30,31,31,32,32,33,33,34,34,35,35,36,36,37,37,38,38,39,39,40,40,42,42,43,43,45,45,46,46],"right_children":[2,4,6,8,10,12,14,16,18,20,22,24,-1,26,-1,28,30,32,34,36,38,40,42,-1,-1,44,46,48,50,-1,52,54,56,58,60,62,64,66,68,70,72,-1,74,76,-1,78,80,-1,-1,-1,-1,-1,-1,-1,-1,-1,-1,-1,-1,-1,-1,-1,-1,-1,-1,-1,-1,-1,-1,-1,-1,-1,-1,-1,-1,-1,-1,-1,-1,-1,-1],"split_conditions":[8.22283E2,3.0036667E2,-6.0797658E-2,7.0416243E-3,2.674802E0,6.1396446E0,2.5302788E1,8.056067E1,1.4254574E-2,8E0,7.7642096E2,9.5096075E2,-7.6304704E-2,2E1,-7.3801406E-2,2.1905572E0,3.584233E0,5.999141E1,8E0,3.7637398E1,6.760884E2,7.478539E2,6.997884E2,-6.899096E-2,7.826262E-2,5.516761E0,4.124603E0,-1.4142766E0,1.3707331E-4,-8.9537844E-2,1.9361088E1,2.567251E1,7.972726E1,4.2244644E2,2.9375E-2,-3.5329924E0,8.163616E1,6.9982796E1,7.9123886E1,3.1071312E0,8.2318886E1,-9.397506E-2,3.1528346E-2,4.3625973E1,-7.670807E-2,5.0100277E1,3.2393587E0,1.1206277E-1,-8.477926E-2,-8.54643E-2,6.485366E-2,-8.789633E-2,1.0547467E-1,1.6937982E-2,-5.486838E-2,-6.1546754E-2,1.7974688E-2,-8.126315E-2,-1.6754473E-2,1.984134E-3,-3.8698055E-2,9.3279116E-2,-8.4584765E-2,-8.693998E-2,5.1362064E-2,-8.555687E-2,7.3604725E-2,2.6930226E-2,-5.115329E-2,-3.8314577E-2,1.03444625E-2,3.7325718E-2,-3.7219692E-2,-8.712537E-2,-8.06222E-2,-9.697286E-2,7.148477E-2,4.766554E-2,-3.2643955E-2,7.184597E-2,-1.1124598E-1],"split_indices":[1,70,79,89,59,60,76,85,83,0,77,45,0,0,0,75,75,85,0,37,65,93,65,0,0,91,79,79,96,0,76,56,85,82,62,63,53,85,84,91,36,0,78,87,0,85,75,0,0,0,0,0,0,0,0,0,0,0,0,0,0,0,0,0,0,0,0,0,0,0,0,0,0,0,0,0,0,0,0,0,0],"split_type":[0,0,0,0,0,0,0,0,0,0,0,0,0,0,0,0,0,0,0,0,0,0,0,0,0,0,0,0,0,0,0,0,0,0,0,0,0,0,0,0,0,0,0,0,0,0,0,0,0,0,0,0,0,0,0,0,0,0,0,0,0,0,0,0,0,0,0,0,0,0,0,0,0,0,0,0,0,0,0,0,0],"sum_hessian":[6.468335E5,5.0897597E5,1.3785753E5,3.4864197E5,1.60334E5,7.2006244E2,1.3713747E5,2.3231246E4,3.2541075E5,3.8832074E4,1.2150192E5,1.6030708E2,5.597554E2,1.3680245E5,3.3501315E2,2.1356604E4,1.8746436E3,1.3647294E5,1.889378E5,9.943007E3,2.8889066E4,1.1670225E5,4.7996704E3,7.590661E0,1.5271642E2,1.1677612E5,2.002634E4,8.872142E2,2.0469389E4,3.7631033E2,1.4983333E3,7.904186E4,5.743108E4,5.2036688E4,1.3690111E5,2.0077031E2,9.742236E3,4.9656255E3,2.3923441E4,5.5214156E4,6.1488094E4,8.392191E2,3.9604514E3,1.1665242E5,1.23691864E2,6.7900034E3,1.3236337E4,5.0096725E2,3.8624692E2,2.0264373E4,2.0501636E2,1.8812735E1,1.4795205E3,6.879589E4,1.0245972E4,3.261459E4,2.481649E4,3.699919E4,1.5037496E4,6.2351406E4,7.45497E4,1.642616E2,3.6508717E1,9.552304E3,1.8993297E2,1.1856626E3,3.779963E3,4.977816E3,1.8945625E4,2.6283648E4,2.8930508E4,5.5310207E4,6.177887E3,3.4032424E3,5.572089E2,3.1435009E1,1.1662099E5,4.244443E3,2.5455608E3,1.3136993E4,9.934434E1],"tree_param":{"num_deleted":"0","num_feature":"98","num_nodes":"81","size_leaf_vector":"1"}},{"base_weights":[9.70569E-3,-3.3792236E-1,1.3183032E0,-4.6056822E-1,-7.374024E-2,-7.319184E-1,1.3338047E0,-3.5861725E-1,-1.0153399E0,-6.685116E-1,1.22834995E-1,-1.6134235E0,1.3381957E0,1.3406421E0,-7.212419E-2,-1.2923074E0,-2.8289834E-1,5.8607835E-1,-1.2096907E0,1.0877177E0,-8.64983E-1,-1.5128096E0,2.2027667E-1,-7.4350365E-2,-1.9853806E0,-7.4376374E-2,7.380461E-2,1.392535E0,1.0381886E0,-1.5263638E0,1.2385608E0,-4.981835E-1,6.667208E-2,-1.2337656E0,1.3965194E0,1.308791E0,-1.289109E0,-1.7018185E0,1.5312145E0,-1.380187E0,-3.198831E-2,-1.6023897E0,1.6705941E0,3.5570824E-1,-9.271924E-1,-8.045354E-2,-1.021662E-1,1.3956398E0,-7.4680194E-2,3.05226E-1,1.3662825E0,2.7110228E-2,-8.0996625E-2,-8.6194895E-2,9.7975664E-2,-3.6418676E-2,-8.350568E-3,2.30837E-2,-9.566731E-3,1.0093399E-1,-7.927834E-2,-8.0786996E-2,8.610775E-2,8.277073E-2,-8.1953846E-2,1.1161738E-3,-7.331055E-2,-7.529898E-2,-8.806331E-2,8.197309E-2,-8.5200965E-2,6.459947E-2,-7.5450085E-2,2.9125443E-2,-8.485674E-2,-7.801532E-2,-8.0829956E-2,-7.816242E-2,1.0553104E-1,2.1783479E-2,-8.366955E-2,5.5564113E-2,-8.1643485E-2,6.983549E-2,-8.481907E-2,3.4075245E-2,-7.4498326E-2,-9.81928E-2,6.9422804E-2],"categories":[],"categories_nodes":[],"categories_segments":[],"categories_sizes":[],"default_left":[0,0,0,0,0,0,0,0,0,0,0,0,0,0,0,0,0,0,0,0,0,0,0,0,0,0,0,0,0,0,0,0,0,0,0,0,0,0,0,0,0,0,0,0,0,0,0,0,0,0,0,0,0,0,0,0,0,0,0,0,0,0,0,0,0,0,0,0,0,0,0,0,0,0,0,0,0,0,0,0,0,0,0,0,0,0,0,0,0],"id":10,"left_children":[1,3,5,7,9,11,13,15,17,19,21,23,25,27,-1,29,31,33,35,37,39,41,43,-1,45,-1,-1,47,49,51,53,55,57,59,61,63,65,67,69,71,73,75,77,79,81,-1,-1,83,-1,85,87,-1,-1,-1,-1,-1,-1,-1,-1,-1,-1,-1,-1,-1,-1,-1,-1,-1,-1,-1,-1,-1,-1,-1,-1,-1,-1,-1,-1,-1,-1,-1,-1,-1,-1,-1,-1,-1,-1],"loss_changes":[2.9298147E5,1.6487746E4,4.2972344E3,1.9655703E4,1.886361E4,1.8544626E3,2.54875E3,2.0755113E4,1.679214E4,1.3829863E4,1.9327314E4,3.0544067E1,1.2053345E2,2.0991562E3,0E0,1.3046996E4,2.0436791E4,8.614396E3,9.624734E3,4.991929E3,1.5469643E4,1.9469902E3,1.7785717E4,0E0,5.871582E-1,0E0,0E0,1.0257031E3,4.713957E3,3.9025742E3,3.9861206E3,1.2811418E4,1.0548178E4,2.06258E3,3.9663696E3,1.5060767E3,1.0832906E4,3.7938232E0,1.2215845E3,7.668117E3,1.4096796E4,1.4433594E0,2.6953503E2,1.6609477E4,1.7381857E4,0E0,0E0,3.799375E2,0E0,4.0966094E3,1.0026719E3,0E0,0E0,0E0,0E0,0E0,0E0,0E0,0E0,0E0,0E0,0E0,0E0,0E0,0E0,0E0,0E0,0E0,0E0,0E0,0E0,0E0,0E0,0E0,0E0,0E0,0E0,0E0,0E0,0E0,0E0,0E0,0E0,0E0,0E0,0E0,0E0,0E0,0E0],"parents":[2147483647,0,0,1,1,2,2,3,3,4,4,5,5,6,6,7,7,8,8,9,9,10,10,11,11,12,12,13,13,15,15,16,16,17,17,18,18,19,19,20,20,21,21,22,22,24,24,27,27,28,28,29,29,30,30,31,31,32,32,33,33,34,34,35,35,36,36,37,37,38,38,39,39,40,40,41,41,42,42,43,43,44,44,47,47,49,49,50,50],"right_children":[2,4,6,8,10,12,14,16,18,20,22,24,26,28,-1,30,32,34,36,38,40,42,44,-1,46,-1,-1,48,50,52,54,56,58,60,62,64,66,68,70,72,74,76,78,80,82,-1,-1,84,-1,86,88,-1,-1,-1,-1,-1,-1,-1,-1,-1,-1,-1,-1,-1,-1,-1,-1,-1,-1,-1,-1,-1,-1,-1,-1,-1,-1,-1,-1,-1,-1,-1,-1,-1,-1,-1,-1,-1,-1],"split_conditions":[8.22283E2,3.0036667E2,2.658146E-1,1.716563E-2,2.7976565E0,6.5820864E-3,2.5302788E1,7.0416243E-3,3.378754E1,1.634756E1,7.344895E2,-6.0797658E-2,1.972463E1,2E1,-7.212419E-2,8.056067E1,6.880328E2,1.5979477E1,2.2722282E0,2.9035285E0,4.1333334E2,4.256573E2,7.945769E1,-7.4350365E-2,1.1342772E1,-7.4376374E-2,7.380461E-2,5.516761E0,8.080294E2,2.1905572E0,3.6262202E0,2.3341358E1,2.8938934E-2,6.7071564E2,8.014508E1,4.056939E1,7.549266E-3,4.989423E1,3.722E2,4.8705507E-3,2.072082E1,1.919531E1,9.354732E-5,6.997884E2,5.0437727E0,-8.045354E-2,-1.021662E-1,8.280936E1,-7.4680194E-2,3.1030282E-2,7.517407E-3,2.7110228E-2,-8.0996625E-2,-8.6194895E-2,9.7975664E-2,-3.6418676E-2,-8.350568E-3,2.30837E-2,-9.566731E-3,1.0093399E-1,-7.927834E-2,-8.0786996E-2,8.610775E-2,8.277073E-2,-8.1953846E-2,1.1161738E-3,-7.331055E-2,-7.529898E-2,-8.806331E-2,8.197309E-2,-8.5200965E-2,6.459947E-2,-7.5450085E-2,2.9125443E-2,-8.485674E-2,-7.801532E-2,-8.0829956E-2,-7.816242E-2,1.0553104E-1,2.1783479E-2,-8.366955E-2,5.5564113E-2,-8.1643485E-2,6.983549E-2,-8.481907E-2,3.4075245E-2,-7.4498326E-2,-9.81928E-2,6.9422804E-2],"split_indices":[1,70,79,67,75,48,76,89,87,72,93,79,92,0,0,85,81,76,91,91,70,82,69,0,92,0,0,91,33,75,75,88,94,45,84,37,73,53,38,89,60,72,96,65,90,0,0,37,0,94,89,0,0,0,0,0,0,0,0,0,0,0,0,0,0,0,0,0,0,0,0,0,0,0,0,0,0,0,0,0,0,0,0,0,0,0,0,0,0],"split_type":[0,0,0,0,0,0,0,0,0,0,0,0,0,0,0,0,0,0,0,0,0,0,0,0,0,0,0,0,0,0,0,0,0,0,0,0,0,0,0,0,0,0,0,0,0,0,0,0,0,0,0,0,0,0,0,0,0,0,0,0,0,0,0,0,0,0,0,0,0,0,0,0,0,0,0,0,0,0,0,0,0,0,0,0,0,0,0,0,0],"sum_hessian":[6.4404744E5,5.088678E5,1.3517964E5,3.4752806E5,1.6133973E5,1.01406323E3,1.3416558E5,2.9357847E5,5.3949594E4,4.007716E4,1.2126258E5,7.113666E2,3.0269662E2,1.3383648E5,3.290916E2,2.2021025E4,2.7155744E5,5.8385903E3,4.8111E4,4.0319163E3,3.6045246E4,6.817094E3,1.14445484E5,5.3465314E2,1.7671347E2,1.3629008E1,2.8906763E2,1.14233516E5,1.9602975E4,2.0157264E4,1.8637616E3,1.6805766E5,1.034998E5,1.7988203E3,4.03977E3,1.4702892E3,4.664071E4,5.526957E2,3.4792205E3,2.227042E4,1.3774824E4,6.6309966E3,1.8609763E2,1.0236447E5,1.2081014E4,2.7418056E1,1.4929541E2,1.1411127E5,1.2223827E2,6.0621177E3,1.3540857E4,8.7211804E2,1.9285145E4,3.645209E2,1.4992407E3,9.914387E4,6.891379E4,4.0892934E4,6.2606863E4,1.7511572E2,1.6237046E3,3.9372208E2,3.646048E3,1.3159879E3,1.5430128E2,5.5492935E3,4.1091418E4,1.3483626E2,4.1785944E2,3.367056E3,1.1216465E2,1.02377856E3,2.1246643E4,1.0062179E4,3.712645E3,1.7017694E3,4.929227E3,2.1983555E1,1.6411407E2,9.848426E4,3.8802144E3,3.106567E3,8.974446E3,1.1407234E5,3.8929955E1,5.012169E3,1.0499486E3,8.898573E1,1.3451872E4],"tree_param":{"num_deleted":"0","num_feature":"98","num_nodes":"89","size_leaf_vector":"1"}},{"base_weights":[3.7155345E-3,-3.2680216E-1,1.288368E0,-5.294202E-1,-1.737872E-1,-8.2156146E-1,1.2994639E0,8.1687444E-1,-5.8046687E-1,-1.1944683E-2,-6.7827743E-1,-7.26021E-2,1.2745702E0,1.3062485E0,-7.0574455E-2,1.4069103E0,-1.3465436E0,-8.295576E-1,-3.0240744E-1,-1.167507E-1,6.668403E-1,-8.878611E-1,4.437886E-1,-6.796728E-2,7.420688E-2,1.3611239E0,1.0050749E0,1.7126676E0,-8.3953045E-2,-8.3451934E-2,1.2343187E0,1.1212064E0,-8.982684E-1,5.6661206E-1,-4.846636E-1,-5.762852E-1,3.1803015E-3,9.143395E-1,-1.7964599E0,-1.1704413E0,-3.8700384E-1,9.843343E-1,-1.6228601E0,1.3642199E0,-7.2845876E-2,-1.7146447E0,1.0781358E0,-8.2075045E-2,9.059539E-2,8.645297E-2,-7.97926E-2,-8.144631E-2,7.667994E-2,6.2147127E-3,-5.017155E-2,4.6374213E-2,-8.8109665E-2,-4.8985254E-2,-4.155771E-3,3.164135E-3,-7.851683E-2,4.0194644E-3,-5.2630138E-2,5.483622E-2,-7.296131E-2,-8.488398E-2,-9.1932625E-2,-6.872907E-2,1.761002E-2,1.9351302E-3,-7.8447774E-2,-8.3449274E-2,6.898164E-2,-8.565184E-2,-7.659697E-2,6.8249546E-2,-1.4185059E-1,-8.419975E-2,-1.0084281E-1,3.1459983E-2,7.001441E-2],"categories":[],"categories_nodes":[],"categories_segments":[],"categories_sizes":[],"default_left":[0,0,0,0,0,0,0,0,0,0,0,0,0,0,0,0,0,0,0,0,0,0,0,0,0,0,0,0,0,0,0,0,0,0,0,0,0,0,0,0,0,0,0,0,0,0,0,0,0,0,0,0,0,0,0,0,0,0,0,0,0,0,0,0,0,0,0,0,0,0,0,0,0,0,0,0,0,0,0,0,0],"id":11,"left_children":[1,3,5,7,9,11,13,15,17,19,21,-1,23,25,-1,27,29,31,33,35,37,39,41,-1,-1,43,45,47,-1,-1,49,51,53,55,57,59,61,63,65,67,69,71,73,75,-1,77,79,-1,-1,-1,-1,-1,-1,-1,-1,-1,-1,-1,-1,-1,-1,-1,-1,-1,-1,-1,-1,-1,-1,-1,-1,-1,-1,-1,-1,-1,-1,-1,-1,-1,-1],"loss_changes":[2.698258E5,1.5670398E4,3.0455156E3,1.4945926E4,2.3512238E4,9.0170605E2,2.3811719E3,1.0143531E4,1.4512031E4,1.5510756E4,1.644888E4,0E0,8.921866E1,2.13125E3,0E0,5.893407E3,1.4195117E3,1.4814953E4,1.568158E4,1.0408945E4,1.7780443E4,8.340902E3,1.2299838E4,0E0,0E0,9.5425E2,3.9544258E3,1.8938652E3,0E0,0E0,2.6843436E2,4.2677363E3,1.1480625E4,1.442725E4,1.6269088E4,2.4851824E4,1.2209449E4,1.1473422E4,7.977539E0,1.1711953E4,1.0696981E4,9.155711E3,1.6092773E1,3.57E2,0E0,1.4273682E0,2.800791E3,0E0,0E0,0E0,0E0,0E0,0E0,0E0,0E0,0E0,0E0,0E0,0E0,0E0,0E0,0E0,0E0,0E0,0E0,0E0,0E0,0E0,0E0,0E0,0E0,0E0,0E0,0E0,0E0,0E0,0E0,0E0,0E0,0E0,0E0],"parents":[2147483647,0,0,1,1,2,2,3,3,4,4,5,5,6,6,7,7,8,8,9,9,10,10,12,12,13,13,15,15,16,16,17,17,18,18,19,19,20,20,21,21,22,22,25,25,26,26,27,27,30,30,31,31,32,32,33,33,34,34,35,35,36,36,37,37,38,38,39,39,40,40,41,41,42,42,43,43,45,45,46,46],"right_children":[2,4,6,8,10,12,14,16,18,20,22,-1,24,26,-1,28,30,32,34,36,38,40,42,-1,-1,44,46,48,-1,-1,50,52,54,56,58,60,62,64,66,68,70,72,74,76,-1,78,80,-1,-1,-1,-1,-1,-1,-1,-1,-1,-1,-1,-1,-1,-1,-1,-1,-1,-1,-1,-1,-1,-1,-1,-1,-1,-1,-1,-1,-1,-1,-1,-1,-1,-1],"split_conditions":[8.22283E2,4.1982376E2,-6.0797658E-2,2.4042692E0,2.3827682E1,6.5820864E-3,2.5302788E1,1.5386667E2,7.98305E1,4.1333334E2,2.7496923E1,-7.26021E-2,1.9059486E2,2E1,-7.0574455E-2,6.947866E0,8.331479E1,1.5399805E1,1.2261896E-2,7.0416243E-3,4.2403537E2,3.1772265E0,2.817282E1,-6.796728E-2,7.420688E-2,5.516761E0,1.1656707E1,1.13833336E2,-8.3953045E-2,-8.3451934E-2,7.906106E1,3.2353333E2,4.0227887E2,9.027139E-3,3.012513E0,3.82335E1,9.1569826E-5,8.101262E1,2.7976565E0,4.2754996E2,1.5454366E-2,7.982246E1,1.716563E-2,5.9272428E0,-7.2845876E-2,1.1342772E1,3.1007752E-2,-8.2075045E-2,9.059539E-2,8.645297E-2,-7.97926E-2,-8.144631E-2,7.667994E-2,6.2147127E-3,-5.017155E-2,4.6374213E-2,-8.8109665E-2,-4.8985254E-2,-4.155771E-3,3.164135E-3,-7.851683E-2,4.0194644E-3,-5.2630138E-2,5.483622E-2,-7.296131E-2,-8.488398E-2,-9.1932625E-2,-6.872907E-2,1.761002E-2,1.9351302E-3,-7.8447774E-2,-8.3449274E-2,6.898164E-2,-8.565184E-2,-7.659697E-2,6.8249546E-2,-1.4185059E-1,-8.419975E-2,-1.0084281E-1,3.1459983E-2,7.001441E-2],"split_indices":[1,82,79,91,72,48,76,54,84,70,88,0,71,0,0,58,17,72,83,89,66,75,56,0,0,91,92,70,0,0,69,54,34,89,91,87,96,52,75,66,83,52,67,43,0,92,3,0,0,0,0,0,0,0,0,0,0,0,0,0,0,0,0,0,0,0,0,0,0,0,0,0,0,0,0,0,0,0,0,0,0],"split_type":[0,0,0,0,0,0,0,0,0,0,0,0,0,0,0,0,0,0,0,0,0,0,0,0,0,0,0,0,0,0,0,0,0,0,0,0,0,0,0,0,0,0,0,0,0,0,0,0,0,0,0,0,0,0,0,0,0,0,0,0,0,0,0,0,0,0,0,0,0,0,0,0,0,0,0,0,0,0,0,0,0],"sum_hessian":[6.354798E5,5.0544003E5,1.3003977E5,2.1747003E5,2.8797E5,6.798985E2,1.29359875E5,7.943913E3,2.0952612E5,2.1802705E5,6.9942945E4,5.229203E2,1.5697821E2,1.2903745E5,3.2242365E2,6.2418916E3,1.7020214E3,1.1051909E5,9.900702E4,1.8886645E5,2.9160602E4,5.8935047E4,1.1007899E4,1.1165081E1,1.4581313E2,1.0914682E5,1.9890633E4,5.679603E3,5.622887E2,1.5132806E3,1.8874072E2,3.7597893E3,1.06759305E5,1.7164154E4,8.184287E4,3.9088586E4,1.4977786E5,2.6498775E4,2.661826E3,3.767675E4,2.1258297E4,8.726063E3,2.2818362E3,1.09027555E5,1.1926397E2,5.197644E2,1.9370867E4,1.627674E2,5.516836E3,1.6098763E2,2.7753098E1,4.8989087E2,3.2698984E3,9.955492E3,9.680381E4,1.4861772E4,2.3023816E3,3.6653645E4,4.5189227E4,2.3785832E4,1.5302753E4,1.3957195E5,1.0205915E4,2.4608402E4,1.8903728E3,8.090144E2,1.8528115E3,3.3222688E4,4.45406E3,1.5629829E4,5.6284673E3,1.1310454E3,7.595018E3,1.1366477E3,1.1451884E3,1.0900823E5,1.9328407E1,4.7787177E2,4.1892616E1,8.09417E3,1.1276698E4],"tree_param":{"num_deleted":"0","num_feature":"98","num_nodes":"81","size_leaf_vector":"1"}},{"base_weights":[-3.3602372E-3,-3.2278582E-1,1.2597764E0,-5.302827E-1,-1.6760479E-1,1.3255591E0,9.1555786E-1,-4.601397E-1,-1.425401E0,-1.7120833E-2,-6.361702E-1,1.3327802E0,-6.906807E-2,1.293675E0,2.399885E-1,-5.717795E-1,1.5045774E-1,-1.5408832E0,1.4226571E0,-4.1671914E-1,1.3360973E-1,-9.7126627E-1,-8.985337E-2,1.3357211E0,-7.122443E-2,1.3287175E0,-2.1544607E0,-1.7658832E0,4.3606383E-1,-7.5629735E-1,-1.1859639E-1,-6.4701205E-1,9.834139E-1,-1.6206639E0,8.658043E-1,2.103459E0,-8.310399E-2,1.4830875E-1,-9.8030627E-1,2.2253458E-1,-9.6681374E-1,-1.442758E0,-3.5034782E-1,2.9361492E-1,-1.0176964E0,-9.46961E-2,1.3367932E0,-1.0443201E-1,1.3416163E0,-2.2150078E0,-6.2714696E-2,-7.0099525E-2,-1.857946E0,8.618317E-1,-3.869669E-1,-7.8720674E-2,-3.2561928E-2,1.174334E-2,-5.905434E-2,3.5111182E-3,-8.075274E-2,6.9666855E-2,-4.3064877E-2,2.8426692E-2,-8.3312266E-2,-8.627484E-2,9.181061E-2,1.0735154E-1,-7.02932E-2,5.01449E-2,-3.861241E-2,-7.507344E-2,-4.6038005E-4,1.595508E-2,-4.689241E-2,7.4923426E-2,-6.288773E-2,5.5744797E-2,-7.55155E-2,2.6967136E-2,-4.2368863E-2,-4.439562E-2,3.1418804E-2,-7.620833E-2,7.6184675E-2,6.689254E-2,-8.339446E-2,6.756747E-2,-1.0083049E-1,-6.197949E-2,-1.1272061E-1,-7.8688405E-2,-9.675004E-2,4.9919214E-2,-1.0140846E-1,-8.161196E-2,6.7029074E-2],"categories":[],"categories_nodes":[],"categories_segments":[],"categories_sizes":[],"default_left":[0,0,0,0,0,0,0,0,0,0,0,0,0,0,0,0,0,0,0,0,0,0,0,0,0,0,0,0,0,0,0,0,0,0,0,0,0,0,0,0,0,0,0,0,0,0,0,0,0,0,0,0,0,0,0,0,0,0,0,0,0,0,0,0,0,0,0,0,0,0,0,0,0,0,0,0,0,0,0,0,0,0,0,0,0,0,0,0,0,0,0,0,0,0,0,0,0],"id":12,"left_children":[1,3,5,7,9,11,13,15,17,19,21,23,-1,25,27,29,31,33,35,37,39,41,43,45,-1,47,49,51,53,55,57,59,61,63,65,67,-1,69,71,73,75,77,79,81,83,-1,85,-1,87,89,-1,-1,91,93,95,-1,-1,-1,-1,-1,-1,-1,-1,-1,-1,-1,-1,-1,-1,-1,-1,-1,-1,-1,-1,-1,-1,-1,-1,-1,-1,-1,-1,-1,-1,-1,-1,-1,-1,-1,-1,-1,-1,-1,-1,-1,-1],"loss_changes":[2.5330642E5,1.6134793E4,2.8681094E3,1.3460965E4,2.021476E4,2.0813281E3,5.193994E3,1.3553387E4,5.1263438E3,1.3070197E4,1.2758047E4,8.622656E2,0E0,1.5781562E3,2.871189E3,1.4055816E4,2.0416035E4,2.8763438E3,1.2795618E3,1.8926508E4,1.5418703E4,1.2645281E4,9.427552E3,3.695E2,0E0,5.7172656E2,4.3911133E0,1.9173706E1,2.3303384E3,1.0266125E4,1.826646E4,1.0902331E4,1.1369016E4,1.4471484E3,1.2128937E3,7.919873E1,0E0,2.3349988E4,1.5059086E4,1.6336158E4,8.451777E3,4.2435938E3,8.245206E3,7.416164E3,9.975707E3,0E0,3.3890625E2,0E0,4.2301953E2,1.8925171E0,0E0,0E0,8.248047E0,1.7315227E3,4.880562E3,0E0,0E0,0E0,0E0,0E0,0E0,0E0,0E0,0E0,0E0,0E0,0E0,0E0,0E0,0E0,0E0,0E0,0E0,0E0,0E0,0E0,0E0,0E0,0E0,0E0,0E0,0E0,0E0,0E0,0E0,0E0,0E0,0E0,0E0,0E0,0E0,0E0,0E0,0E0,0E0,0E0,0E0],"parents":[2147483647,0,0,1,1,2,2,3,3,4,4,5,5,6,6,7,7,8,8,9,9,10,10,11,11,13,13,14,14,15,15,16,16,17,17,18,18,19,19,20,20,21,21,22,22,23,23,25,25,26,26,27,27,28,28,29,29,30,30,31,31,32,32,33,33,34,34,35,35,37,37,38,38,39,39,40,40,41,41,42,42,43,43,44,44,46,46,48,48,49,49,52,52,53,53,54,54],"right_children":[2,4,6,8,10,12,14,16,18,20,22,24,-1,26,28,30,32,34,36,38,40,42,44,46,-1,48,50,52,54,56,58,60,62,64,66,68,-1,70,72,74,76,78,80,82,84,-1,86,-1,88,90,-1,-1,92,94,96,-1,-1,-1,-1,-1,-1,-1,-1,-1,-1,-1,-1,-1,-1,-1,-1,-1,-1,-1,-1,-1,-1,-1,-1,-1,-1,-1,-1,-1,-1,-1,-1,-1,-1,-1,-1,-1,-1,-1,-1,-1,-1],"split_conditions":[8.22283E2,4.1982376E2,2E1,3.3489468E0,2.3827682E1,2.5302788E1,9.594037E1,7.632785E2,2.787006E1,8E0,3.1864123E0,5.516761E0,-6.906807E-2,3.2393587E0,7.871219E1,2.37617E1,2.9046667E2,3.1376743E1,5.8306956E0,1.4162013E-2,7.9834785E1,4.2285086E2,1.5454366E-2,4.6625057E1,-7.122443E-2,7.906456E1,2.5302788E1,-6.0797658E-2,2.1579386E1,4.0255318E1,1.4176775E1,1.3113333E2,3.474E2,2.617741E0,3.3588648E0,3.986255E1,-8.310399E-2,1.4686667E2,1.7314626E-2,2.0328775E-4,2.3752286E0,1.9722342E-2,-9.6187735E-1,2.4294054E-2,1.0582035E1,-9.46961E-2,8.280936E1,-1.0443201E-1,7.961375E1,-9.6121654E-2,-6.2714696E-2,-7.0099525E-2,1.0603333E2,2.2301367E1,3.0010477E1,-7.8720674E-2,-3.2561928E-2,1.174334E-2,-5.905434E-2,3.5111182E-3,-8.075274E-2,6.9666855E-2,-4.3064877E-2,2.8426692E-2,-8.3312266E-2,-8.627484E-2,9.181061E-2,1.0735154E-1,-7.02932E-2,5.01449E-2,-3.861241E-2,-7.507344E-2,-4.6038005E-4,1.595508E-2,-4.689241E-2,7.4923426E-2,-6.288773E-2,5.5744797E-2,-7.55155E-2,2.6967136E-2,-4.2368863E-2,-4.439562E-2,3.1418804E-2,-7.620833E-2,7.6184675E-2,6.689254E-2,-8.339446E-2,6.756747E-2,-1.0083049E-1,-6.197949E-2,-1.1272061E-1,-7.8688405E-2,-9.675004E-2,4.9919214E-2,-1.0140846E-1,-8.161196E-2,6.7029074E-2],"split_indices":[1,82,0,91,72,76,29,93,88,0,75,91,0,75,52,88,70,44,74,83,53,82,83,71,0,84,76,79,72,85,60,54,54,75,10,53,0,70,83,80,91,94,79,62,90,0,37,0,69,79,0,0,86,88,72,0,0,0,0,0,0,0,0,0,0,0,0,0,0,0,0,0,0,0,0,0,0,0,0,0,0,0,0,0,0,0,0,0,0,0,0,0,0,0,0,0,0],"split_type":[0,0,0,0,0,0,0,0,0,0,0,0,0,0,0,0,0,0,0,0,0,0,0,0,0,0,0,0,0,0,0,0,0,0,0,0,0,0,0,0,0,0,0,0,0,0,0,0,0,0,0,0,0,0,0,0,0,0,0,0,0,0,0,0,0,0,0,0,0,0,0,0,0,0,0,0,0,0,0,0,0,0,0,0,0,0,0,0,0,0,0,0,0,0,0,0,0],"sum_hessian":[6.2780506E5,5.01089E5,1.2671607E5,2.1440273E5,2.8668628E5,1.0638268E5,2.0333393E4,1.9882405E5,1.5578677E4,2.1699684E5,6.968943E4,1.0610015E5,2.8253E2,1.3036135E4,7.297258E3,1.6809088E5,3.073317E4,1.4972054E4,6.0662317E2,5.943317E4,1.5756367E5,4.319438E4,2.6495053E4,1.0598762E5,1.1253068E2,1.2905593E4,1.3054163E2,6.4908124E2,6.648177E3,1.19453555E5,4.863733E4,1.5701154E4,1.5032016E4,1.4491977E4,4.80077E2,4.9720752E2,1.0941564E2,2.9679018E4,2.9754152E4,1.4578373E5,1.1779937E4,2.4550639E4,1.8643742E4,1.8747557E4,7.747495E3,3.4583885E1,1.0595303E5,4.792397E1,1.2857669E4,1.2094588E2,9.595755E0,1.3433392E2,5.147473E2,4.381503E3,2.2666736E3,1.3592421E4,1.0586113E5,3.649662E4,1.2140707E4,9.019458E3,6.681697E3,1.2299191E4,2.7328245E3,2.9534872E2,1.4196628E4,1.3058769E2,3.494893E2,4.914933E2,5.7142034E0,1.5390926E4,1.4288091E4,1.936235E4,1.0391802E4,1.3458436E5,1.1199379E4,1.2430262E3,1.053691E4,6.313412E2,2.3919297E4,6.6822764E3,1.1961465E4,4.138659E3,1.4608897E4,6.460409E3,1.287086E3,1.05916305E5,3.67247E1,1.2821107E4,3.656116E1,5.9564943E0,1.1498938E2,1.14370964E2,4.0037634E2,4.184443E3,1.9706046E2,1.3172284E3,9.494453E2],"tree_param":{"num_deleted":"0","num_feature":"98","num_nodes":"97","size_leaf_vector":"1"}},{"base_weights":[1.2743626E-3,-2.922585E-1,1.2295606E0,-2.4218443E-1,-7.9990035E-1,1.2985858E0,8.5628897E-1,-3.922447E-1,-4.0666744E-2,-1.1665316E0,-1.3049777E-1,1.3057626E0,-6.774967E-2,2.2743465E-1,1.279636E0,3.7645187E-2,-5.327201E-1,2.2289777E-2,-1.1072521E0,1.3328949E0,-1.2896386E0,9.1531086E-1,-1.0657773E0,1.3088056E0,-6.975334E-2,7.900718E-1,-5.6585586E-1,1.3130751E0,-2.0253136E0,-3.1710732E-1,6.528525E-1,-4.709132E-1,-1.6171416E0,-1.15243055E-1,3.6805442E-1,-1.2942843E0,8.430502E-1,1.5570514E0,-7.6601185E-2,1.3818424E0,-1.3601745E0,-7.962466E-2,1.3269216E0,-1.5018069E0,7.133811E-1,-9.481194E-2,1.3099211E0,9.3353254E-1,-2.0200584E0,3.4184536E-1,-1.9536355E0,1.3232698E0,-2.7680829E0,-2.0908277E0,-6.2347043E-2,-3.1680513E-2,2.8413078E-2,-1.0219744E-2,5.537636E-2,-1.9259542E-2,-6.141397E-2,4.6524196E-3,-8.3722495E-2,9.889266E-3,-1.8255606E-2,5.507058E-2,6.9394596E-3,-7.258888E-2,3.822352E-3,7.0217706E-2,-8.502163E-2,8.077754E-2,-8.611249E-2,8.471667E-2,-7.6152235E-2,-7.3705174E-2,-2.7884468E-2,7.885505E-2,-8.124785E-2,5.248148E-2,-8.317586E-2,8.743552E-2,-8.055907E-2,6.554672E-2,-9.736455E-2,-8.76586E-2,5.2681487E-2,-6.958692E-2,-1.0772977E-1,-8.400794E-2,5.313782E-2,-6.902694E-2,-1.03305735E-1,-1.0772418E-1,6.6720754E-2,-1.474626E-1,-5.3467285E-2,-7.316341E-2,-1.0931444E-1],"categories":[],"categories_nodes":[],"categories_segments":[],"categories_sizes":[],"default_left":[0,0,0,0,0,0,0,0,0,0,0,0,0,0,0,0,0,0,0,0,0,0,0,0,0,0,0,0,0,0,0,0,0,0,0,0,0,0,0,0,0,0,0,0,0,0,0,0,0,0,0,0,0,0,0,0,0,0,0,0,0,0,0,0,0,0,0,0,0,0,0,0,0,0,0,0,0,0,0,0,0,0,0,0,0,0,0,0,0,0,0,0,0,0,0,0,0,0,0],"id":13,"left_children":[1,3,5,7,9,11,13,15,17,19,21,23,-1,25,27,29,31,33,35,37,39,41,43,45,-1,47,49,51,53,55,57,59,61,63,65,67,69,71,-1,73,75,-1,77,79,81,-1,83,85,87,89,91,93,95,97,-1,-1,-1,-1,-1,-1,-1,-1,-1,-1,-1,-1,-1,-1,-1,-1,-1,-1,-1,-1,-1,-1,-1,-1,-1,-1,-1,-1,-1,-1,-1,-1,-1,-1,-1,-1,-1,-1,-1,-1,-1,-1,-1,-1,-1],"loss_changes":[2.239529E5,1.2743855E4,3.0857812E3,1.3799426E4,1.1046975E4,1.9273438E3,4.978256E3,1.5795449E4,1.3078755E4,8.95057E3,1.5582589E4,8.305625E2,0E0,3.3592485E3,1.2378027E3,1.4059854E4,1.3212602E4,8.746089E3,3.9610127E3,8.794385E2,5.225039E3,7.765793E3,6.5251855E3,3.6264062E2,0E0,1.7769749E3,3.9349004E3,4.6403125E2,3.121643E0,1.1450329E4,9.183807E3,1.2108535E4,1.0419688E3,1.029183E4,8.799639E3,2.138711E3,1.3595002E3,2.4586157E2,0E0,6.502899E2,2.4682422E3,0E0,4.774252E3,2.788751E3,3.9884185E3,0E0,3.34875E2,1.3537961E3,1.51067505E1,2.7553984E3,7.67666E1,4.3071875E2,5.431076E0,2.9199524E0,0E0,0E0,0E0,0E0,0E0,0E0,0E0,0E0,0E0,0E0,0E0,0E0,0E0,0E0,0E0,0E0,0E0,0E0,0E0,0E0,0E0,0E0,0E0,0E0,0E0,0E0,0E0,0E0,0E0,0E0,0E0,0E0,0E0,0E0,0E0,0E0,0E0,0E0,0E0,0E0,0E0,0E0,0E0,0E0,0E0],"parents":[2147483647,0,0,1,1,2,2,3,3,4,4,5,5,6,6,7,7,8,8,9,9,10,10,11,11,13,13,14,14,15,15,16,16,17,17,18,18,19,19,20,20,21,21,22,22,23,23,25,25,26,26,27,27,28,28,29,29,30,30,31,31,32,32,33,33,34,34,35,35,36,36,37,37,39,39,40,40,42,42,43,43,44,44,46,46,47,47,48,48,49,49,50,50,51,51,52,52,53,53],"right_children":[2,4,6,8,10,12,14,16,18,20,22,24,-1,26,28,30,32,34,36,38,40,42,44,46,-1,48,50,52,54,56,58,60,62,64,66,68,70,72,-1,74,76,-1,78,80,82,-1,84,86,88,90,92,94,96,98,-1,-1,-1,-1,-1,-1,-1,-1,-1,-1,-1,-1,-1,-1,-1,-1,-1,-1,-1,-1,-1,-1,-1,-1,-1,-1,-1,-1,-1,-1,-1,-1,-1,-1,-1,-1,-1,-1,-1,-1,-1,-1,-1,-1,-1],"split_conditions":[8.22283E2,1.7949354E-2,2E1,6.8702844E2,2.826E2,2.5302788E1,4.124603E0,6.360727E-3,8.4381065E1,2.2722282E0,3.1076666E2,5.516761E0,-6.774967E-2,5.0100277E1,3.2393587E0,2.4413507E-2,1.9884293E1,3.3593054E0,1.8002647E1,4.056939E1,2.994429E1,2.948434E0,4.7093332E2,4.3625973E1,-6.975334E-2,3.3516629E0,1.5823334E2,9.881639E0,2.5302788E1,7.5231415E2,3.026219E0,7.558307E2,2.4020115E1,2.160494E1,5.527429E0,2.6811731E1,4.2203204E2,6.7857723E0,-7.6601185E-2,8.080866E-3,1.6459997E1,-7.962466E-2,6.864145E2,7.838976E1,4.988654E1,-9.481194E-2,8.625457E1,7.871219E1,-6.957124E-2,1.3226664E1,-6.0797658E-2,7.923115E1,4.17E2,1.1342772E1,-6.2347043E-2,-3.1680513E-2,2.8413078E-2,-1.0219744E-2,5.537636E-2,-1.9259542E-2,-6.141397E-2,4.6524196E-3,-8.3722495E-2,9.889266E-3,-1.8255606E-2,5.507058E-2,6.9394596E-3,-7.258888E-2,3.822352E-3,7.0217706E-2,-8.502163E-2,8.077754E-2,-8.611249E-2,8.471667E-2,-7.6152235E-2,-7.3705174E-2,-2.7884468E-2,7.885505E-2,-8.124785E-2,5.248148E-2,-8.317586E-2,8.743552E-2,-8.055907E-2,6.554672E-2,-9.736455E-2,-8.76586E-2,5.2681487E-2,-6.958692E-2,-1.0772977E-1,-8.400794E-2,5.313782E-2,-6.902694E-2,-1.03305735E-1,-1.0772418E-1,6.6720754E-2,-1.474626E-1,-5.3467285E-2,-7.316341E-2,-1.0931444E-1],"split_indices":[1,67,0,81,54,76,79,73,36,91,70,91,0,85,75,78,76,59,32,37,87,75,70,87,0,59,70,74,76,77,91,77,55,88,90,88,66,90,0,89,47,0,81,84,85,0,5,52,79,92,79,84,38,92,0,0,0,0,0,0,0,0,0,0,0,0,0,0,0,0,0,0,0,0,0,0,0,0,0,0,0,0,0,0,0,0,0,0,0,0,0,0,0,0,0,0,0,0,0],"split_type":[0,0,0,0,0,0,0,0,0,0,0,0,0,0,0,0,0,0,0,0,0,0,0,0,0,0,0,0,0,0,0,0,0,0,0,0,0,0,0,0,0,0,0,0,0,0,0,0,0,0,0,0,0,0,0,0,0,0,0,0,0,0,0,0,0,0,0,0,0,0,0,0,0,0,0,0,0,0,0,0,0,0,0,0,0,0,0,0,0,0,0,0,0,0,0,0,0,0,0],"sum_hessian":[6.211535E5,5.0134422E5,1.1980926E5,4.5633278E5,4.5011438E4,1.0110965E5,1.8699611E4,2.615606E5,1.947722E5,2.908233E4,1.5929108E4,1.0083744E5,2.722138E2,7.524298E3,1.1175313E4,6.4419996E4,1.971406E5,1.8391723E5,1.0854963E4,1.3647216E3,2.7717607E4,7.520205E3,8.408903E3,1.0072447E5,1.1296837E2,4.4021206E3,3.122177E3,1.1063973E4,1.1134117E2,4.0859375E4,2.3560623E4,1.8651173E5,1.0628854E4,1.3158006E5,5.2337184E4,9.905383E3,9.4958057E2,1.2661149E3,9.860664E1,7.125323E2,2.7005076E4,1.0598754E3,6.4603296E3,6.7538506E3,1.6550526E3,3.4456547E1,1.0069001E5,4.188938E3,2.1318292E2,1.8880312E3,1.2341458E3,1.1037078E4,2.6894697E1,1.0114209E2,1.0199085E1,3.009961E4,1.0759767E4,8.1656274E3,1.5394994E4,1.6754922E5,1.896252E4,3.4460303E2,1.028425E4,5.840822E4,7.3171836E4,1.2464104E4,3.987308E4,8.884517E3,1.0208657E3,7.78276E2,1.7130457E2,1.2444231E3,2.1691877E1,6.437032E2,6.882911E1,2.3647062E4,3.3580127E3,5.956008E3,5.0432162E2,4.0221893E2,6.351632E3,1.1452301E3,5.098226E2,1.006593E5,3.0714708E1,1.7865402E2,4.010284E3,3.959757E1,1.7358534E2,4.9587515E2,1.3921561E3,2.046581E2,1.0294877E3,3.464372E1,1.1002435E4,2.3637615E1,3.2570822E0,1.5509744E1,8.563235E1],"tree_param":{"num_deleted":"0","num_feature":"98","num_nodes":"99","size_leaf_vector":"1"}},{"base_weights":[-1.2736013E-2,-3.054693E-1,1.2086034E0,-4.1782975E-1,-7.212299E-2,-7.997736E-1,1.2195134E0,-3.2310644E-1,-9.494972E-1,-6.815613E-1,1.4993533E-1,1.2522668E0,-6.958746E-2,1.0172542E0,1.3078619E0,-4.1768512E-1,3.4119517E-1,5.6641614E-1,-1.1349856E0,-1.1308295E0,-1.1656429E-2,3.9797845E-1,-3.1706482E-1,-6.2240433E-2,6.983407E-2,3.134355E-1,1.2675277E0,1.3099623E0,-7.279461E-2,-3.533445E-1,-1.3849674E0,8.273126E-1,-2.0411555E-1,-1.1584709E0,1.3925883E0,1.1726353E0,-1.2173145E0,-1.4184521E0,-7.60309E-2,5.4645324E-1,-1.1531309E0,7.631907E-1,3.519812E-2,-7.52215E-1,7.529793E-1,4.5701346E-1,-2.2454193E0,1.2856082E0,-6.679814E-2,-2.1520412E0,1.3113128E0,-2.4359656E-2,-6.717574E-4,-7.8444116E-2,5.6511786E-2,5.0410356E-2,-8.227687E-2,3.294578E-2,-3.2917134E-2,9.979098E-2,-7.520332E-2,-7.519355E-2,8.5548475E-2,-8.351766E-2,1.0506854E-1,5.399201E-2,-6.3821174E-2,3.9420024E-2,-7.683216E-2,-6.138847E-2,5.915249E-2,-4.7924675E-2,4.684444E-2,7.005056E-2,-6.653363E-2,-8.4921435E-2,4.406134E-2,-5.4441717E-2,1.7976386E-2,-6.82668E-2,4.2904853E-3,5.9928473E-2,-8.348378E-2,2.9296508E-2,-4.994176E-2,-9.987902E-2,-1.4528002E-1,-1.8645103E-1,6.45156E-2,-8.492421E-2,-1.4894173E-1,6.561085E-2,-6.518278E-2],"categories":[],"categories_nodes":[],"categories_segments":[],"categories_sizes":[],"default_left":[0,0,0,0,0,0,0,0,0,0,0,0,0,0,0,0,0,0,0,0,0,0,0,0,0,0,0,0,0,0,0,0,0,0,0,0,0,0,0,0,0,0,0,0,0,0,0,0,0,0,0,0,0,0,0,0,0,0,0,0,0,0,0,0,0,0,0,0,0,0,0,0,0,0,0,0,0,0,0,0,0,0,0,0,0,0,0,0,0,0,0,0,0],"id":14,"left_children":[1,3,5,7,9,11,13,15,17,19,21,23,-1,25,27,29,31,33,35,37,39,41,43,-1,-1,45,47,49,-1,51,53,55,57,59,61,63,65,67,69,71,73,75,77,79,81,83,85,87,-1,89,91,-1,-1,-1,-1,-1,-1,-1,-1,-1,-1,-1,-1,-1,-1,-1,-1,-1,-1,-1,-1,-1,-1,-1,-1,-1,-1,-1,-1,-1,-1,-1,-1,-1,-1,-1,-1,-1,-1,-1,-1,-1,-1],"loss_changes":[2.188297E5,1.2944965E4,2.5938906E3,1.6782977E4,2.1716766E4,7.7914923E2,2.101875E3,1.7772125E4,1.4170914E4,1.2898018E4,1.3624383E4,5.359868E1,0E0,6.3032812E3,4.7740625E2,1.5409719E4,9.345381E3,7.831957E3,8.531922E3,7.782285E3,1.0960978E4,1.0177559E4,1.899867E4,0E0,0E0,3.450383E3,1.244375E3,3.8551562E2,0E0,1.0562865E4,7.145328E3,8.339174E3,6.514118E3,1.9434534E3,3.4291284E3,4.0888794E3,5.8882227E3,5.2584453E3,7.9730566E3,6.790716E3,2.5639038E3,1.1124137E4,1.4049586E4,1.4903641E4,1.2735904E4,1.669221E3,7.583862E1,6.2321875E2,0E0,7.0517426E0,1.951875E2,0E0,0E0,0E0,0E0,0E0,0E0,0E0,0E0,0E0,0E0,0E0,0E0,0E0,0E0,0E0,0E0,0E0,0E0,0E0,0E0,0E0,0E0,0E0,0E0,0E0,0E0,0E0,0E0,0E0,0E0,0E0,0E0,0E0,0E0,0E0,0E0,0E0,0E0,0E0,0E0,0E0,0E0],"parents":[2147483647,0,0,1,1,2,2,3,3,4,4,5,5,6,6,7,7,8,8,9,9,10,10,11,11,13,13,14,14,15,15,16,16,17,17,18,18,19,19,20,20,21,21,22,22,25,25,26,26,27,27,29,29,30,30,31,31,32,32,33,33,34,34,35,35,36,36,37,37,38,38,39,39,40,40,41,41,42,42,43,43,44,44,45,45,46,46,47,47,49,49,50,50],"right_children":[2,4,6,8,10,12,14,16,18,20,22,24,-1,26,28,30,32,34,36,38,40,42,44,-1,-1,46,48,50,-1,52,54,56,58,60,62,64,66,68,70,72,74,76,78,80,82,84,86,88,-1,90,92,-1,-1,-1,-1,-1,-1,-1,-1,-1,-1,-1,-1,-1,-1,-1,-1,-1,-1,-1,-1,-1,-1,-1,-1,-1,-1,-1,-1,-1,-1,-1,-1,-1,-1,-1,-1,-1,-1,-1,-1,-1,-1],"split_conditions":[8.22283E2,2.9706668E2,-6.0797658E-2,1.716563E-2,2.8893077E0,6.1396446E0,4.2967178E-2,6.997884E2,3.378754E1,4.074E2,5.9423127E0,7.8029034E2,-6.958746E-2,9.5960785E1,5.516761E0,2.7206668E2,5.0170486E1,8.109571E1,2.696321E-2,2.229307E1,2.0265383E1,3.557E2,2.9411765E-2,-6.2240433E-2,6.983407E-2,3.419585E0,2.4727968E1,3.1715375E-5,-7.279461E-2,8.062384E1,8.062351E1,1.1382843E-2,1.8647411E1,6.7071564E2,1.5979477E1,8.0336945E1,2.2722282E0,6.7049457E2,2.6964035E1,5.5103754E-3,1.7664465E1,4.023167E1,4.1921307E2,2.344867E1,5.9845104E1,3.3326666E2,3.3865185E1,3.6318058E1,-6.679814E-2,4.8130835E2,2.5302788E1,-2.4359656E-2,-6.717574E-4,-7.8444116E-2,5.6511786E-2,5.0410356E-2,-8.227687E-2,3.294578E-2,-3.2917134E-2,9.979098E-2,-7.520332E-2,-7.519355E-2,8.5548475E-2,-8.351766E-2,1.0506854E-1,5.399201E-2,-6.3821174E-2,3.9420024E-2,-7.683216E-2,-6.138847E-2,5.915249E-2,-4.7924675E-2,4.684444E-2,7.005056E-2,-6.653363E-2,-8.4921435E-2,4.406134E-2,-5.4441717E-2,1.7976386E-2,-6.82668E-2,4.2904853E-3,5.9928473E-2,-8.348378E-2,2.9296508E-2,-4.994176E-2,-9.987902E-2,-1.4528002E-1,-1.8645103E-1,6.45156E-2,-8.492421E-2,-1.4894173E-1,6.561085E-2,-6.518278E-2],"split_indices":[1,54,79,67,91,60,46,65,87,38,90,33,0,4,91,54,69,52,78,60,60,86,94,0,0,75,76,80,0,84,85,57,56,45,76,69,91,65,40,57,76,85,82,72,69,54,56,55,0,2,76,0,0,0,0,0,0,0,0,0,0,0,0,0,0,0,0,0,0,0,0,0,0,0,0,0,0,0,0,0,0,0,0,0,0,0,0,0,0,0,0,0,0],"split_type":[0,0,0,0,0,0,0,0,0,0,0,0,0,0,0,0,0,0,0,0,0,0,0,0,0,0,0,0,0,0,0,0,0,0,0,0,0,0,0,0,0,0,0,0,0,0,0,0,0,0,0,0,0,0,0,0,0,0,0,0,0,0,0,0,0,0,0,0,0,0,0,0,0,0,0,0,0,0,0,0,0,0,0,0,0,0,0,0,0,0,0,0,0],"sum_hessian":[6.120633E5,4.9372662E5,1.1833672E5,3.3325672E5,1.604699E5,6.38968E2,1.1769775E5,2.8286275E5,5.0393973E4,4.2854316E4,1.17615586E5,1.428105E2,4.961575E2,3.578547E4,8.191228E4,2.476101E5,3.525264E4,5.4937725E3,4.49002E4,2.5650953E4,1.7203363E4,7.681573E4,4.0799863E4,7.391098E0,1.354194E2,9.387683E3,2.6397785E4,8.18506E4,6.1676987E1,2.3216834E5,1.5441751E4,1.8637615E4,1.6615025E4,1.7790529E3,3.7147197E3,1.5462633E3,4.3353938E4,2.0154795E4,5.4961587E3,1.1554471E4,5.6488926E3,3.827901E4,3.8536715E4,2.9004873E4,1.1794989E4,8.889701E3,4.9798196E2,2.6216227E4,1.8155824E2,3.1296902E1,8.1819305E4,1.665746E5,6.559375E4,1.4389918E4,1.0518328E3,1.736772E4,1.2698947E3,5.729165E3,1.088586E4,1.7520076E2,1.603852E3,3.675179E2,3.3472017E3,3.8054956E2,1.1657137E3,1.0871399E3,4.2266797E4,1.024258E3,1.9130537E4,2.8704512E3,2.6257075E3,2.3798408E3,9.17463E3,3.6669363E2,5.282199E3,1.7509025E3,3.652811E4,8.628943E3,2.9907771E4,1.6749713E4,1.2255161E4,9.96303E3,1.831959E3,8.1670947E3,7.2260614E2,3.649876E2,1.3299435E2,2.3826149E1,2.61924E4,2.218248E1,9.114422E0,8.179152E4,2.778481E1],"tree_param":{"num_deleted":"0","num_feature":"98","num_nodes":"93","size_leaf_vector":"1"}},{"base_weights":[2.2392005E-2,-2.5312388E-1,1.1893864E0,9.3101196E-2,-3.3518285E-1,1.2555938E0,8.4619147E-1,-7.0928484E-1,2.6012835E-1,-2.8170943E-1,-8.8678485E-1,1.2622315E0,-6.562426E-2,2.4460746E-1,1.2238903E0,-1.0882014E0,7.6563084E-1,1.7433062E0,1.82163E-1,-6.72053E-1,-2.0586896E-1,-1.0427355E0,9.803379E-1,1.2649738E0,-6.6727586E-2,7.764104E-1,-4.32032E-1,-9.165268E-2,1.2473074E0,5.7799655E-1,-1.3592474E0,1.2754976E0,-9.442018E-1,1.8973713E0,-8.735003E-2,-3.765706E-1,4.9167842E-1,-1.0575614E0,-6.064399E-3,7.2753474E-2,-3.6117858E-1,-1.1647533E0,3.889697E-1,1.586841E0,-1.504347E0,-9.110831E-2,1.2660507E0,1.0500559E0,-5.0529814E-1,-1.7876196E0,2.1535395E-1,1.2665149E0,-2.1309025E0,6.2733755E-2,-7.944076E-2,-7.5758986E-2,-2.5895774E-2,7.1736164E-2,-7.949659E-2,-7.9814285E-2,7.442121E-2,-7.4991584E-2,9.5568165E-2,-5.235557E-2,2.5386075E-2,-1.9505827E-2,3.6659516E-2,6.960264E-2,-5.826927E-2,-2.9506445E-2,5.0334778E-2,-1.2740252E-2,2.5162434E-2,-1.0436882E-2,-5.1965512E-2,-3.0828744E-2,-7.097479E-2,6.185397E-2,-7.553952E-2,8.4688224E-2,-8.078135E-2,-8.117852E-2,-7.115423E-2,6.334024E-2,-1.3513982E-1,5.8439728E-2,-1.04477465E-1,-9.513314E-2,7.553546E-2,-6.729826E-2,-9.5697515E-2,-9.681261E-2,3.517802E-2,6.403949E-2,-1.20641045E-1,-7.245165E-2,-1.1364257E-1],"categories":[],"categories_nodes":[],"categories_segments":[],"categories_sizes":[],"default_left":[0,0,0,0,0,0,0,0,0,0,0,0,0,0,0,0,0,0,0,0,0,0,0,0,0,0,0,0,0,0,0,0,0,0,0,0,0,0,0,0,0,0,0,0,0,0,0,0,0,0,0,0,0,0,0,0,0,0,0,0,0,0,0,0,0,0,0,0,0,0,0,0,0,0,0,0,0,0,0,0,0,0,0,0,0,0,0,0,0,0,0,0,0,0,0,0,0],"id":15,"left_children":[1,3,5,7,9,11,13,15,17,19,21,23,-1,25,27,29,31,33,35,37,39,41,43,45,-1,47,49,-1,51,53,55,57,59,61,-1,63,65,67,69,71,73,75,77,79,81,-1,83,85,87,89,91,93,95,-1,-1,-1,-1,-1,-1,-1,-1,-1,-1,-1,-1,-1,-1,-1,-1,-1,-1,-1,-1,-1,-1,-1,-1,-1,-1,-1,-1,-1,-1,-1,-1,-1,-1,-1,-1,-1,-1,-1,-1,-1,-1,-1,-1],"loss_changes":[1.9838189E5,1.4181496E4,2.6766406E3,1.2817725E4,1.1901945E4,1.6855781E3,4.3306406E3,9.210208E3,9.15361E3,1.08899E4,1.0384578E4,7.033281E2,0E0,2.646151E3,8.4046875E2,5.9218486E3,2.9380322E3,2.1291357E3,1.3006573E4,1.5364641E4,1.3328719E4,5.749961E3,4.1456963E3,3.2959375E2,0E0,1.4446333E3,2.8406138E3,0E0,7.567207E2,2.6926504E3,1.4786191E3,1.186417E3,1.2307537E3,1.8285742E2,0E0,1.5898357E4,1.0307473E4,1.0012992E4,1.2979408E4,1.5545826E4,2.0444611E4,4.2341953E3,4.1674956E3,7.5964307E2,2.9208984E0,0E0,2.9789062E2,1.2674395E3,2.0454868E3,5.57937E1,2.303112E3,6.1000586E2,3.101532E0,0E0,0E0,0E0,0E0,0E0,0E0,0E0,0E0,0E0,0E0,0E0,0E0,0E0,0E0,0E0,0E0,0E0,0E0,0E0,0E0,0E0,0E0,0E0,0E0,0E0,0E0,0E0,0E0,0E0,0E0,0E0,0E0,0E0,0E0,0E0,0E0,0E0,0E0,0E0,0E0,0E0,0E0,0E0,0E0],"parents":[2147483647,0,0,1,1,2,2,3,3,4,4,5,5,6,6,7,7,8,8,9,9,10,10,11,11,13,13,14,14,15,15,16,16,17,17,18,18,19,19,20,20,21,21,22,22,23,23,25,25,26,26,28,28,29,29,30,30,31,31,32,32,33,33,35,35,36,36,37,37,38,38,39,39,40,40,41,41,42,42,43,43,44,44,46,46,47,47,48,48,49,49,50,50,51,51,52,52],"right_children":[2,4,6,8,10,12,14,16,18,20,22,24,-1,26,28,30,32,34,36,38,40,42,44,46,-1,48,50,-1,52,54,56,58,60,62,-1,64,66,68,70,72,74,76,78,80,82,-1,84,86,88,90,92,94,96,-1,-1,-1,-1,-1,-1,-1,-1,-1,-1,-1,-1,-1,-1,-1,-1,-1,-1,-1,-1,-1,-1,-1,-1,-1,-1,-1,-1,-1,-1,-1,-1,-1,-1,-1,-1,-1,-1,-1,-1,-1,-1,-1,-1],"split_conditions":[8.22283E2,1.919531E1,2E1,4.981712E1,3.9215688E-2,2.5302788E1,8.080294E2,7.05107E2,6.14E1,7.896987E1,8.2375305E1,5.516761E0,-6.562426E-2,5.002194E1,7.517407E-3,-4.680075E-1,3.9873447E1,7.336566E2,2.5073334E2,4.204778E2,5.0033356E1,3.697576E0,6.6E1,4.3625973E1,-6.6727586E-2,3.0511435E-2,1.0085664E2,-9.165268E-2,3.2636018E0,5.052532E0,7.54523E-5,7.470359E-3,8.674573E1,1.2E1,-8.735003E-2,6.894708E2,1.4138791E-2,7.21979E2,1.568702E-1,4.191082E1,1.7E1,7.766374E1,2.3348988E1,-4.3954602E-1,1.7203184E-2,-9.110831E-2,5.9272428E0,3.1681788E0,1.0791877E3,-6.0797658E-2,8.322558E-3,9.881639E0,1.1342772E1,6.2733755E-2,-7.944076E-2,-7.5758986E-2,-2.5895774E-2,7.1736164E-2,-7.949659E-2,-7.9814285E-2,7.442121E-2,-7.4991584E-2,9.5568165E-2,-5.235557E-2,2.5386075E-2,-1.9505827E-2,3.6659516E-2,6.960264E-2,-5.826927E-2,-2.9506445E-2,5.0334778E-2,-1.2740252E-2,2.5162434E-2,-1.0436882E-2,-5.1965512E-2,-3.0828744E-2,-7.097479E-2,6.185397E-2,-7.553952E-2,8.4688224E-2,-8.078135E-2,-8.117852E-2,-7.115423E-2,6.334024E-2,-1.3513982E-1,5.8439728E-2,-1.04477465E-1,-9.513314E-2,7.553546E-2,-6.729826E-2,-9.5697515E-2,-9.681261E-2,3.517802E-2,6.403949E-2,-1.20641045E-1,-7.245165E-2,-1.1364257E-1],"split_indices":[1,72,0,53,94,76,33,81,38,68,84,91,0,85,89,95,85,93,54,82,69,75,38,87,0,94,55,0,91,42,96,89,36,0,0,81,83,93,95,87,0,36,72,95,67,0,43,75,1,79,89,74,92,0,0,0,0,0,0,0,0,0,0,0,0,0,0,0,0,0,0,0,0,0,0,0,0,0,0,0,0,0,0,0,0,0,0,0,0,0,0,0,0,0,0,0,0],"split_type":[0,0,0,0,0,0,0,0,0,0,0,0,0,0,0,0,0,0,0,0,0,0,0,0,0,0,0,0,0,0,0,0,0,0,0,0,0,0,0,0,0,0,0,0,0,0,0,0,0,0,0,0,0,0,0,0,0,0,0,0,0,0,0,0,0,0,0,0,0,0,0,0,0,0,0,0,0,0,0,0,0,0,0,0,0,0,0,0,0,0,0,0,0,0,0,0,0],"sum_hessian":[6.170001E5,4.9915525E5,1.1784486E5,9.563783E4,4.0351744E5,9.87851E4,1.9059758E4,1.6477566E4,7.916026E4,3.6785803E5,3.5659395E4,9.853094E4,2.5416414E2,7.3517793E3,1.1707979E4,1.3109821E4,3.3677456E3,3.9522903E3,7.520797E4,5.9843176E4,3.0801488E5,3.291096E4,2.7484324E3,9.842751E4,1.03427925E2,4.116377E3,3.2354023E3,8.841741E1,1.1619562E4,1.8340793E3,1.1275742E4,2.5943674E3,7.733782E2,3.785645E3,1.6664514E2,2.6810234E4,4.839774E4,3.790261E4,2.1940568E4,1.102425E5,1.9777236E5,3.032655E4,2.5844106E3,2.2094697E3,5.389626E2,3.3737038E1,9.8393766E4,3.3922998E3,7.24077E2,1.0451531E3,2.1902495E3,1.1554491E4,6.507015E1,1.3979358E3,4.361435E2,9.511992E3,1.7637491E3,2.4582664E3,1.3610124E2,6.1016315E2,1.6321507E2,1.5092262E1,3.770553E3,1.5247887E4,1.1562349E4,1.0405419E4,3.7992316E4,1.5975065E3,3.63051E4,1.3915714E4,8.024855E3,6.260644E4,4.7636062E4,1.6147484E5,3.629751E4,9.622777E3,2.0703773E4,1.7869927E3,7.97418E2,2.1385396E3,7.09301E1,2.107636E2,3.28199E2,9.837576E4,1.8010334E1,3.2692844E3,1.2301538E2,4.276879E2,2.963891E2,2.3505394E2,8.1009906E2,4.0451578E2,1.7857336E3,1.1510485E4,4.4005634E1,1.3143215E1,5.1926937E1],"tree_param":{"num_deleted":"0","num_feature":"98","num_nodes":"97","size_leaf_vector":"1"}},{"base_weights":[3.4957067E-3,-2.6492617E-1,1.1668922E0,5.152858E-2,-3.3886498E-1,1.2340536E0,8.206275E-1,-7.912862E-1,2.2035484E-1,-7.3307186E-1,-2.708137E-1,1.2406423E0,-6.464111E-2,2.363585E-1,1.226713E0,-1.1109582E0,8.363435E-1,1.6702758E0,1.4305271E-1,-2.4597217E-1,-1.088103E0,3.0130222E-2,-3.8580388E-1,1.243342E0,-6.55568E-2,-1.5951234E-1,1.372333E0,-1.6551429E0,1.2508491E0,2.3908754E-1,-1.3327808E0,1.3248564E0,-1.5660146E0,1.8142027E0,-8.436206E-2,3.397873E-1,-6.104777E-1,-1.4131427E0,2.7785465E-1,-2.841994E-2,-1.315758E0,-2.7634996E-1,4.177468E-1,-3.1378135E-1,-1.179039E0,-8.8812314E-2,1.2443968E0,2.114894E-1,-1.8026847E0,-7.733392E-2,1.3833495E0,-6.687907E-2,-9.513598E-2,1.2691894E0,-2.3080306E0,-7.635969E-2,5.4223705E-2,-7.087033E-2,-1.7823808E-2,7.21082E-2,-7.383779E-2,-8.022367E-2,-6.9561385E-2,-7.26301E-2,9.138232E-2,7.700906E-3,4.9522437E-2,5.7754777E-3,-7.8404985E-2,3.0222256E-2,-7.810219E-2,-1.583746E-2,6.1048415E-2,4.707728E-2,-4.8225902E-2,-7.445213E-2,-3.4213897E-2,4.9279383E-3,-5.2407093E-2,-6.1992235E-2,3.3923347E-2,-1.845706E-2,2.9984353E-2,-7.007565E-2,1.1726809E-2,6.226156E-2,-1.2619182E-1,2.3195079E-2,-9.374275E-2,-7.61802E-2,-9.846096E-2,7.166942E-2,6.465526E-2,6.398684E-2,-9.218176E-2,-1.3923474E-1,-9.3951225E-2],"categories":[],"categories_nodes":[],"categories_segments":[],"categories_sizes":[],"default_left":[0,0,0,0,0,0,0,0,0,0,0,0,0,0,0,0,0,0,0,0,0,0,0,0,0,0,0,0,0,0,0,0,0,0,0,0,0,0,0,0,0,0,0,0,0,0,0,0,0,0,0,0,0,0,0,0,0,0,0,0,0,0,0,0,0,0,0,0,0,0,0,0,0,0,0,0,0,0,0,0,0,0,0,0,0,0,0,0,0,0,0,0,0,0,0,0,0],"id":16,"left_children":[1,3,5,7,9,11,13,15,17,19,21,23,-1,25,27,29,31,33,35,37,39,41,43,45,-1,47,49,51,53,55,57,59,61,63,-1,65,67,69,71,73,75,77,79,81,83,-1,85,87,89,-1,91,-1,-1,93,95,-1,-1,-1,-1,-1,-1,-1,-1,-1,-1,-1,-1,-1,-1,-1,-1,-1,-1,-1,-1,-1,-1,-1,-1,-1,-1,-1,-1,-1,-1,-1,-1,-1,-1,-1,-1,-1,-1,-1,-1,-1,-1],"loss_changes":[1.8877623E5,1.14928125E4,2.6344688E3,1.3237109E4,1.0680781E4,1.5818125E3,4.3684287E3,8.0787676E3,8.686588E3,1.0136098E4,1.1750027E4,6.538125E2,0E0,3.3960334E3,7.5764746E2,3.8865273E3,2.9937695E3,1.8987354E3,1.090846E4,1.5109181E4,8.1786914E3,1.1151725E4,1.4034996E4,3.0342188E2,0E0,3.4146997E3,6.489697E1,4.582123E0,7.0608594E2,2.7374148E3,9.203633E2,6.9852783E2,6.665039E-1,1.6787793E2,0E0,7.052675E3,1.0591328E4,2.300755E3,9.565981E3,5.445542E3,3.0527422E3,1.5168712E4,1.791396E4,1.1389633E4,6.431162E3,0E0,3.0035938E2,2.4075168E3,4.4951416E1,0E0,6.9282227E0,0E0,0E0,3.5426953E2,6.134613E0,0E0,0E0,0E0,0E0,0E0,0E0,0E0,0E0,0E0,0E0,0E0,0E0,0E0,0E0,0E0,0E0,0E0,0E0,0E0,0E0,0E0,0E0,0E0,0E0,0E0,0E0,0E0,0E0,0E0,0E0,0E0,0E0,0E0,0E0,0E0,0E0,0E0,0E0,0E0,0E0,0E0,0E0],"parents":[2147483647,0,0,1,1,2,2,3,3,4,4,5,5,6,6,7,7,8,8,9,9,10,10,11,11,13,13,14,14,15,15,16,16,17,17,18,18,19,19,20,20,21,21,22,22,23,23,25,25,26,26,27,27,28,28,29,29,30,30,31,31,32,32,33,33,35,35,36,36,37,37,38,38,39,39,40,40,41,41,42,42,43,43,44,44,46,46,47,47,48,48,50,50,53,53,54,54],"right_children":[2,4,6,8,10,12,14,16,18,20,22,24,-1,26,28,30,32,34,36,38,40,42,44,46,-1,48,50,52,54,56,58,60,62,64,-1,66,68,70,72,74,76,78,80,82,84,-1,86,88,90,-1,92,-1,-1,94,96,-1,-1,-1,-1,-1,-1,-1,-1,-1,-1,-1,-1,-1,-1,-1,-1,-1,-1,-1,-1,-1,-1,-1,-1,-1,-1,-1,-1,-1,-1,-1,-1,-1,-1,-1,-1,-1,-1,-1,-1,-1,-1],"split_conditions":[8.22283E2,1.919531E1,2E1,4.981712E1,7.886335E1,2.5302788E1,1.1598842E2,2.1E1,6.14E1,2.1976015E1,1.3256752E-2,5.516761E0,-6.464111E-2,5E0,7.8029034E2,-4.680075E-1,3.976652E1,7.336566E2,8.995485E-3,2.8882004E-2,4.045828E2,2.3366726E1,7.991204E1,4.6625057E1,-6.55568E-2,2.9975753E-2,8.6103175E-3,-8.742611E-2,9.1447205E2,6.8569617E0,1.9099987E1,1.3665356E-2,1.716563E-2,1.2E1,-8.436206E-2,3.0573593E-2,3.762477E1,2.2552698E0,6.891041E2,9.821667E1,7.976916E1,6.0223083E1,1.1272679E-2,2.7496923E1,2.1805717E-2,-8.8812314E-2,5.9272428E0,3.2523334E2,1.15770445E1,-7.733392E-2,1.3313301E-2,-6.687907E-2,-9.513598E-2,3.2636018E0,3.200509E0,-7.635969E-2,5.4223705E-2,-7.087033E-2,-1.7823808E-2,7.21082E-2,-7.383779E-2,-8.022367E-2,-6.9561385E-2,-7.26301E-2,9.138232E-2,7.700906E-3,4.9522437E-2,5.7754777E-3,-7.8404985E-2,3.0222256E-2,-7.810219E-2,-1.583746E-2,6.1048415E-2,4.707728E-2,-4.8225902E-2,-7.445213E-2,-3.4213897E-2,4.9279383E-3,-5.2407093E-2,-6.1992235E-2,3.3923347E-2,-1.845706E-2,2.9984353E-2,-7.007565E-2,1.1726809E-2,6.226156E-2,-1.2619182E-1,2.3195079E-2,-9.374275E-2,-7.61802E-2,-9.846096E-2,7.166942E-2,6.465526E-2,6.398684E-2,-9.218176E-2,-1.3923474E-1,-9.3951225E-2],"split_indices":[1,72,0,53,68,76,71,0,38,88,83,91,0,7,33,95,85,93,73,94,34,88,53,71,0,62,73,79,65,90,72,83,67,0,0,94,87,11,65,86,84,69,67,88,35,0,43,86,92,0,73,0,0,91,75,0,0,0,0,0,0,0,0,0,0,0,0,0,0,0,0,0,0,0,0,0,0,0,0,0,0,0,0,0,0,0,0,0,0,0,0,0,0,0,0,0,0],"split_type":[0,0,0,0,0,0,0,0,0,0,0,0,0,0,0,0,0,0,0,0,0,0,0,0,0,0,0,0,0,0,0,0,0,0,0,0,0,0,0,0,0,0,0,0,0,0,0,0,0,0,0,0,0,0,0,0,0,0,0,0,0,0,0,0,0,0,0,0,0,0,0,0,0,0,0,0,0,0,0,0,0,0,0,0,0,0,0,0,0,0,0,0,0,0,0,0,0],"sum_hessian":[6.0450544E5,4.911799E5,1.1332554E5,9.302735E4,3.9815253E5,9.491357E4,1.841197E4,1.552412E4,7.750323E4,5.861254E4,3.3954E5,9.466724E4,2.4632935E2,7.5503022E3,1.0861669E4,1.2975922E4,2.548198E3,3.9218706E3,7.358136E4,2.471098E4,3.390156E4,9.387027E4,2.4566973E5,9.45677E4,9.9539856E1,5.5997344E3,1.9505676E3,8.965224E1,1.0772017E4,1.8311564E3,1.1144766E4,2.1179644E3,4.3023364E2,3.7611028E3,1.6076768E2,5.8348152E4,1.5233208E4,7.654291E3,1.705669E4,5.9954062E3,2.7906152E4,5.2421777E4,4.1448496E4,2.2522189E5,2.0447842E4,3.2433266E1,9.4535266E4,4.5689995E3,1.030735E3,6.8097606E0,1.9437578E3,4.2079903E1,4.757233E1,1.071743E4,5.4587242E1,5.92477E2,1.2386793E3,1.0255381E4,8.8938525E2,2.0333118E3,8.465249E1,3.4593692E2,8.4296745E1,1.4975594E1,3.7461272E3,4.5390133E4,1.2958019E4,8.665014E3,6.568195E3,5.25863E2,7.1284277E3,1.0461625E4,6.5950654E3,2.9444363E3,3.0509702E3,2.189624E4,6.009912E3,3.5283293E4,1.7138484E4,5.6328057E3,3.581569E4,2.1235303E5,1.2868857E4,1.7667299E4,2.7805427E3,9.451501E4,2.0258307E1,4.0765803E3,4.9241916E2,3.8899713E2,6.417378E2,1.2408469E3,7.02911E2,1.0681824E4,3.5605217E1,2.3256342E1,3.1330902E1],"tree_param":{"num_deleted":"0","num_feature":"98","num_nodes":"97","size_leaf_vector":"1"}},{"base_weights":[-3.8932075E-3,-2.5654274E-1,1.1437248E0,-2.125126E-1,-8.863714E-1,1.214741E0,7.694885E-1,-3.477235E-1,-3.409345E-2,6.320734E-1,-1.0210992E0,1.2213222E0,-6.370445E-2,1.4808197E-1,1.1896038E0,7.9719913E-1,-3.8690037E-1,8.8345096E-2,-5.7950354E-1,-1.4603865E0,1.3223128E0,1.1091281E0,-1.0854254E0,1.2240409E0,-6.4548716E-2,6.829751E-1,-6.056479E-1,1.2218995E0,-1.8136332E0,1.5659461E0,-1.3571235E0,-5.4118204E-1,-1.3821135E-1,-1.5258873E-3,9.0086436E-1,-9.0427756E-1,6.4958465E-1,-7.0029855E-2,-7.605838E-2,-7.239268E-2,1.5403289E0,-7.601957E-2,1.4312683E0,-1.3130993E0,-4.5371187E-1,1.2252237E0,-8.165964E-2,1.0013227E0,-4.1970024E-1,2.8955117E-1,-1.7886697E0,1.2331617E0,-2.416645E0,-1.8652686E0,-5.8388043E-2,-7.514257E-2,8.5115284E-2,6.8035E-2,-7.916647E-2,-3.0513102E-2,3.813953E-2,-7.8079574E-2,-1.7987639E-3,-2.833261E-2,7.820667E-3,5.728236E-2,-8.512237E-2,-4.994739E-2,5.9770998E-2,-8.395367E-2,6.395303E-2,8.290248E-2,-7.5160205E-2,7.561707E-2,-7.340036E-2,-6.904705E-2,2.3123724E-2,3.9237395E-2,-6.447327E-2,-8.536445E-2,6.1316855E-2,5.6295026E-2,-9.594675E-2,-9.741101E-2,7.0353374E-2,-7.990618E-2,5.2776672E-2,-6.5051295E-2,-9.3822174E-2,-1.065967E-1,6.2261343E-2,-1.259848E-1,-4.7577932E-2,-6.7570925E-2,-9.658983E-2],"categories":[],"categories_nodes":[],"categories_segments":[],"categories_sizes":[],"default_left":[0,0,0,0,0,0,0,0,0,0,0,0,0,0,0,0,0,0,0,0,0,0,0,0,0,0,0,0,0,0,0,0,0,0,0,0,0,0,0,0,0,0,0,0,0,0,0,0,0,0,0,0,0,0,0,0,0,0,0,0,0,0,0,0,0,0,0,0,0,0,0,0,0,0,0,0,0,0,0,0,0,0,0,0,0,0,0,0,0,0,0,0,0,0,0],"id":17,"left_children":[1,3,5,7,9,11,13,15,17,19,21,23,-1,25,27,29,31,33,35,37,39,41,43,45,-1,47,49,51,53,55,57,59,61,63,65,67,69,-1,-1,-1,71,-1,73,75,77,79,-1,81,83,85,87,89,91,93,-1,-1,-1,-1,-1,-1,-1,-1,-1,-1,-1,-1,-1,-1,-1,-1,-1,-1,-1,-1,-1,-1,-1,-1,-1,-1,-1,-1,-1,-1,-1,-1,-1,-1,-1,-1,-1,-1,-1,-1,-1],"loss_changes":[1.7255386E5,1.3525756E4,2.8528438E3,1.0997723E4,6.5203555E3,1.4797969E3,4.4716074E3,1.1632975E4,1.3124701E4,3.754005E3,4.0123809E3,6.16375E2,0E0,2.786478E3,9.934414E2,1.421316E4,9.621219E3,1.1720526E4,1.4383689E4,2.130127E-1,1.1823237E3,7.2940515E2,4.086168E3,3.05875E2,0E0,1.4194712E3,3.0388987E3,4.1733105E2,1.4613647E0,2.6491611E3,1.3898813E3,1.3940555E4,1.3971173E4,1.2899552E4,1.0188476E4,5.6666504E3,1.1042308E4,0E0,0E0,0E0,6.516763E2,0E0,1.8211438E2,2.516586E3,7.794261E3,2.9554688E2,0E0,1.1434563E3,2.5334453E3,2.3643699E3,5.0460693E1,4.1194727E2,2.3640747E0,7.866821E-1,0E0,0E0,0E0,0E0,0E0,0E0,0E0,0E0,0E0,0E0,0E0,0E0,0E0,0E0,0E0,0E0,0E0,0E0,0E0,0E0,0E0,0E0,0E0,0E0,0E0,0E0,0E0,0E0,0E0,0E0,0E0,0E0,0E0,0E0,0E0,0E0,0E0,0E0,0E0,0E0,0E0],"parents":[2147483647,0,0,1,1,2,2,3,3,4,4,5,5,6,6,7,7,8,8,9,9,10,10,11,11,13,13,14,14,15,15,16,16,17,17,18,18,19,19,20,20,21,21,22,22,23,23,25,25,26,26,27,27,28,28,29,29,30,30,31,31,32,32,33,33,34,34,35,35,36,36,40,40,42,42,43,43,44,44,45,45,47,47,48,48,49,49,50,50,51,51,52,52,53,53],"right_children":[2,4,6,8,10,12,14,16,18,20,22,24,-1,26,28,30,32,34,36,38,40,42,44,46,-1,48,50,52,54,56,58,60,62,64,66,68,70,-1,-1,-1,72,-1,74,76,78,80,-1,82,84,86,88,90,92,94,-1,-1,-1,-1,-1,-1,-1,-1,-1,-1,-1,-1,-1,-1,-1,-1,-1,-1,-1,-1,-1,-1,-1,-1,-1,-1,-1,-1,-1,-1,-1,-1,-1,-1,-1,-1,-1,-1,-1,-1,-1],"split_conditions":[8.22283E2,1.8282868E-2,2E1,4.2085828E2,3.2903954E1,2.5302788E1,4.124603E0,2.4042692E0,2.4399252E1,8.074683E1,2.2722282E0,5.516761E0,-6.370445E-2,5.0100277E1,3.2393587E0,7.919244E1,7.5006024E2,4.3893332E2,2.7496923E1,2.5913333E2,1.6728426E1,4.6625057E1,3.2291758E0,8.280936E1,-6.4548716E-2,2.1969585E1,1.498E2,9.881639E0,2.5302788E1,4.1715274E2,7.772591E1,5.60596E-1,8.613333E1,7.0198197E-3,4.2403537E2,8.062351E1,3.3187278E-2,-7.0029855E-2,-7.605838E-2,-7.239268E-2,2.8398334E2,-7.601957E-2,6.7857723E0,4.7093332E2,5.872955E0,4.6625057E1,-8.165964E-2,3.1681788E0,1.0791877E3,1.3226664E1,-6.0797658E-2,6.9981865E-3,4.17E2,1.1342772E1,-5.8388043E-2,-7.514257E-2,8.5115284E-2,6.8035E-2,-7.916647E-2,-3.0513102E-2,3.813953E-2,-7.8079574E-2,-1.7987639E-3,-2.833261E-2,7.820667E-3,5.728236E-2,-8.512237E-2,-4.994739E-2,5.9770998E-2,-8.395367E-2,6.395303E-2,8.290248E-2,-7.5160205E-2,7.561707E-2,-7.340036E-2,-6.904705E-2,2.3123724E-2,3.9237395E-2,-6.447327E-2,-8.536445E-2,6.1316855E-2,5.6295026E-2,-9.594675E-2,-9.741101E-2,7.0353374E-2,-7.990618E-2,5.2776672E-2,-6.5051295E-2,-9.3822174E-2,-1.065967E-1,6.2261343E-2,-1.259848E-1,-4.7577932E-2,-6.7570925E-2,-9.658983E-2],"split_indices":[1,67,0,82,87,76,79,91,72,68,91,91,0,85,75,84,93,70,88,54,76,71,91,37,0,72,86,74,76,82,68,95,54,89,66,85,78,0,0,0,86,0,90,70,90,71,0,75,1,92,79,89,38,92,0,0,0,0,0,0,0,0,0,0,0,0,0,0,0,0,0,0,0,0,0,0,0,0,0,0,0,0,0,0,0,0,0,0,0,0,0,0,0,0,0],"split_type":[0,0,0,0,0,0,0,0,0,0,0,0,0,0,0,0,0,0,0,0,0,0,0,0,0,0,0,0,0,0,0,0,0,0,0,0,0,0,0,0,0,0,0,0,0,0,0,0,0,0,0,0,0,0,0,0,0,0,0,0,0,0,0,0,0,0,0,0,0,0,0,0,0,0,0,0,0,0,0,0,0,0,0,0,0,0,0,0,0,0,0,0,0,0,0],"sum_hessian":[5.951238E5,4.877466E5,1.07377234E5,4.5587834E5,3.1868262E4,9.024906E4,1.7128176E4,2.5934138E5,1.9653695E5,2.5968525E3,2.927141E4,9.0011555E4,2.3750769E2,6.909483E3,1.0218693E4,8.579873E3,2.507615E5,1.6050597E5,3.6030984E4,6.43864E2,1.9529886E3,8.575189E2,2.841389E4,8.9914766E4,9.678843E1,4.041488E3,2.8679949E3,1.0110562E4,1.0813213E2,6.323627E3,2.2562456E3,1.5475403E5,9.600748E4,1.4452173E5,1.5984235E4,2.8500326E4,7.530657E3,3.3670038E2,3.071636E2,1.4207733E2,1.8109113E3,9.318254E1,7.643364E2,2.0885523E4,7.5283667E3,8.987813E4,3.6635662E1,3.1361567E3,9.053313E2,1.6330286E3,1.2349664E3,1.0080022E4,3.0539051E1,9.837905E1,9.75308E0,2.6860468E2,6.0550225E3,1.729744E2,2.0832712E3,1.4696866E5,7.785364E3,6.4327905E3,8.957469E4,3.156732E4,1.12954414E5,1.4610963E4,1.3732715E3,2.7271256E4,1.2290692E3,1.6021309E3,5.9285264E3,1.7439137E3,6.699756E1,7.4400995E2,2.0326485E1,2.0117105E4,7.6841754E2,3.033396E3,4.4949707E3,3.352838E1,8.98446E4,3.008432E3,1.277249E2,4.928664E2,4.124649E2,4.7106265E2,1.161966E3,1.907944E2,1.044172E3,3.5383823E1,1.0044639E4,2.7859634E1,2.6794162E0,1.3720214E1,8.465884E1],"tree_param":{"num_deleted":"0","num_feature":"98","num_nodes":"95","size_leaf_vector":"1"}},{"base_weights":[3.465978E-3,-2.3983522E-1,1.1281456E0,-1.8351121E-1,-6.417253E-1,1.1965021E0,7.867377E-1,-6.308702E-1,-1.0312041E-1,-8.1217873E-1,